<?xml version="1.0"?>
<opencv_storage>
<my_nn type_id="opencv-ml-ann-mlp">
  <layer_sizes type_id="opencv-matrix">
    <rows>1</rows>
    <cols>3</cols>
    <dt>i</dt>
    <data>
      256 20 36</data></layer_sizes>
  <activation_function>SIGMOID_SYM</activation_function>
  <f_param1>6.6666666666666663e-001</f_param1>
  <f_param2>1.7159000000000000e+000</f_param2>
  <min_val>-9.4999999999999996e-001</min_val>
  <max_val>9.4999999999999996e-001</max_val>
  <min_val1>-9.7999999999999998e-001</min_val1>
  <max_val1>9.7999999999999998e-001</max_val1>
  <training_params>
    <train_method>RPROP</train_method>
    <dw0>1.0000000000000000e-002</dw0>
    <dw_plus>1.2000000000000000e+000</dw_plus>
    <dw_minus>5.0000000000000000e-001</dw_minus>
    <dw_min>0.</dw_min>
    <dw_max>50.</dw_max>
    <term_criteria><epsilon>1.1920928955078125e-007</epsilon>
      <iterations>300</iterations></term_criteria></training_params>
  <input_scale>
    2.0869967789998034e+000 -7.4535599249992979e-001
    2.0000056689583432e+000 -1.0023837936088840e+000
    2.0000907091185809e+000 -1.0095695960312836e+000
    2.0035525268680168e+000 -1.0614058029241280e+000
    2.0086786126520946e+000 -1.0975993847706087e+000
    2.0214338018947160e+000 -1.1575114984659027e+000
    2.0243902652367178e+000 -1.1688443793331049e+000
    2.0432936918768281e+000 -1.2308412001067559e+000
    2.0839374375458610e+000 -1.3347123111900872e+000
    2.1085105193156695e+000 -1.3881027585494823e+000
    2.0982238184873792e+000 -1.3663433675149959e+000
    2.1015833514169913e+000 -1.3735348332475337e+000
    2.0392434561621333e+000 -1.2186907321349891e+000
    2.0018392687686122e+000 -1.0438161901436336e+000
    2.0137516528896082e+000 -8.8940698002624363e-001
    2.2054081933592671e+000 -6.3799308450750236e-001
    2.0073876713674155e+000 -9.1766293548224709e-001
    2.0464747850717604e+000 -1.2400662685732451e+000
    2.2135943621178655e+000 -1.5811388300841898e+000
    2.5345854174366531e+000 -2.0457725155024415e+000
    2.2336081212477654e+000 -1.6140477733302305e+000
    2.1213203435596424e+000 -1.4142135623730949e+000
    2.0655911179772888e+000 -1.2909944487358054e+000
    2.0629980169981987e+000 -1.2844618605834024e+000
    2.0709578294954083e+000 -1.3042103473846083e+000
    2.1433105018688434e+000 -1.4569408292465591e+000
    2.3902636515427838e+000 -1.8496087779795352e+000
    2.6681325591435585e+000 -2.2170911027169096e+000
    2.9198366128980595e+000 -2.5235730725761800e+000
    2.3243474435977314e+000 -1.7543289038582877e+000
    2.0058303849663521e+000 -1.0793277785771322e+000
    2.1519016905918606e+000 -6.7887374762719410e-001
    2.0126415297530542e+000 -8.9370867928320141e-001
    2.1563214608118026e+000 -1.4811874796290596e+000
    2.5000000000000004e+000 -2.0000000000000004e+000
    2.6389011533787503e+000 -2.1802350005295863e+000
    2.2336081212477654e+000 -1.6140477733302305e+000
    2.0326712241937579e+000 -1.1978241142570358e+000
    2.0020496317036285e+000 -9.5574035989661321e-001
    2.0082365435755647e+000 -9.1326947576888773e-001
    2.0008168266626032e+000 -9.7182531580755016e-001
    2.0105649878794174e+000 -1.1082042730811552e+000
    2.2081115584165536e+000 -1.5719651332536895e+000
    2.3728056188275759e+000 -1.8248005116221597e+000
    2.6533431525261624e+000 -2.1984843263788205e+000
    2.4470356145389651e+000 -1.9284971152676129e+000
    2.0454006426649829e+000 -1.2369803886592992e+000
    2.2845748726354005e+000 -5.9018184209747848e-001
    2.0422607627824680e+000 -8.1447304230015105e-001
    2.1922626879807234e+000 -1.5450232277197480e+000
    2.5000000000000004e+000 -2.0000000000000004e+000
    2.4038197118064324e+000 -1.8686836569161909e+000
    2.0809425926347225e+000 -1.3278395591097751e+000
    2.0100756305184242e+000 -9.0453403373329089e-001
    2.0824320007574411e+000 -7.5116297170179125e-001
    2.1330242311296566e+000 -6.9577218967800702e-001
    2.1194355867930619e+000 -7.0900166653434560e-001
    2.0228869496966944e+000 -8.5972695362109508e-001
    2.0062022010307197e+000 -1.0819161869844238e+000
    2.1433105018688434e+000 -1.4569408292465591e+000
    2.2985593075862267e+000 -1.7157103403054335e+000
    2.1350420507344952e+000 -1.4411533842457844e+000
    2.0022714374157440e+000 -1.0488088481701516e+000
    2.1974475102907185e+000 -6.4353819944228186e-001
    2.0300517669800953e+000 -8.4102144632032527e-001
    2.1102863370707676e+000 -1.3917840842109586e+000
    2.2518326935398019e+000 -1.6433017156427363e+000
    2.2613350843332269e+000 -1.6583123951776997e+000
    2.0161167768656720e+000 -1.1352657564969797e+000
    2.0520546683021395e+000 -7.9639264507916363e-001
    2.1391365457847873e+000 -6.9012619512818740e-001
    2.1948430137208272e+000 -6.4538836236790997e-001
    2.1412135161252430e+000 -6.8824720161168529e-001
    2.0604642460434204e+000 -7.8248582677125122e-001
    2.0000510223605579e+000 -9.9288247181470557e-001
    2.0532129324014190e+000 -1.2588150716508701e+000
    2.1519016905918606e+000 -1.4730279429646664e+000
    2.0372992503051970e+000 -1.2126781251816650e+000
    2.0008168266626032e+000 -9.7182531580755016e-001
    2.1391365457847873e+000 -6.9012619512818740e-001
    2.0105649878794174e+000 -9.0236071479826241e-001
    2.0901213946715407e+000 -1.3486259475142561e+000
    2.1846646323871979e+000 -1.5318660339000707e+000
    2.2456441588308165e+000 -1.6334387869590818e+000
    2.0292045456738181e+000 -1.1861183713402914e+000
    2.0082365435755647e+000 -9.1326947576888773e-001
    2.0555722841946817e+000 -7.9041648547009791e-001
    2.0669101118756306e+000 -7.7263068467731910e-001
    2.0497806247879549e+000 -8.0039052967910618e-001
    2.0095981320898852e+000 -9.0671153816912686e-001
    2.0047846890277383e+000 -1.0716051492541125e+000
    2.0629980169981987e+000 -1.2844618605834024e+000
    2.1175693018981319e+000 -1.4066710362609018e+000
    2.0275487180843124e+000 -1.1803230037419390e+000
    2.0069808240170177e+000 -9.1986621100779975e-001
    2.1846646323871979e+000 -6.5279859848712696e-001
    2.0149099867422122e+000 -8.8512117274747182e-001
    2.0335704689567691e+000 -1.2007749435744732e+000
    2.1350420507344952e+000 -1.4411533842457844e+000
    2.2191801643659272e+000 -1.5904124511289146e+000
    2.0949324644933949e+000 -1.3592121347010717e+000
    2.0251608374794823e+000 -1.1717001988274149e+000
    2.0100756305184242e+000 -1.1055415967851334e+000
    2.0058303849663521e+000 -1.0793277785771322e+000
    2.0073876713674155e+000 -1.0897247358851683e+000
    2.0344828426180341e+000 -1.2037356818823368e+000
    2.1120800019332000e+000 -1.3954814298487215e+000
    2.1631100510233399e+000 -1.4935759876113537e+000
    2.1585629635155055e+000 -1.4852968963237645e+000
    2.0372992503051970e+000 -1.2126781251816650e+000
    2.0207259421636903e+000 -8.6602540378443860e-001
    2.2425929397399220e+000 -6.1404330492878823e-001
    2.0149099867422122e+000 -8.8512117274747182e-001
    2.0221541247628521e+000 -1.1603312953996365e+000
    2.1232237026231124e+000 -1.4180101156804357e+000
    2.2135943621178655e+000 -1.5811388300841898e+000
    2.0965696734438364e+000 -1.3627702877384937e+000
    2.0765696093342663e+000 -1.3176328592561475e+000
    2.0402357024761089e+000 -1.2217125694589079e+000
    2.0025046972870353e+000 -1.0513149660756935e+000
    2.0082365435755642e+000 -1.0949670678066765e+000
    2.0809425926347225e+000 -1.3278395591097751e+000
    2.1310258370705570e+000 -1.4333685689819819e+000
    2.1032889605117644e+000 -1.3771534860493695e+000
    2.1290467263536570e+000 -1.4295028019803124e+000
    2.0167384227874701e+000 -1.1380166814300723e+000
    2.0086786126520946e+000 -9.1107922788148576e-001
    2.2163742690595591e+000 -6.3061125036337451e-001
    2.0207259421636903e+000 -8.6602540378443860e-001
    2.0259440750738040e+000 -1.1745651959058840e+000
    2.1232237026231124e+000 -1.4180101156804357e+000
    2.1370794401599271e+000 -1.4450727642986174e+000
    2.0794691194147759e+000 -1.3244237843891726e+000
    2.0228869496966944e+000 -1.1631599960755992e+000
    2.0110662298337409e+000 -1.1108746793367332e+000
    2.0027494232946066e+000 -1.0538276727335907e+000
    2.0065856740807231e+000 -1.0845117809912479e+000
    2.0292045456738181e+000 -1.1861183713402914e+000
    2.0335704689567691e+000 -1.2007749435744732e+000
    2.0464747850717604e+000 -1.2400662685732451e+000
    2.0617237536248920e+000 -1.2812140468954687e+000
    2.0121044734578200e+000 -1.1162389102754098e+000
    2.0038432491540727e+000 -9.3989790496036274e-001
    2.1270867588147357e+000 -7.0143218118057360e-001
    2.0259440750738040e+000 -8.5137887916791999e-001
    2.0095981320898852e+000 -1.1028865939207586e+000
    2.0579891981575442e+000 -1.2715433260044828e+000
    2.1541010921383230e+000 -1.4770978917519930e+000
    2.0412414523193152e+000 -1.2247448713915892e+000
    2.0002041128749508e+000 -1.0143892286722964e+000
    2.0002778356615476e+000 -9.8346993586692755e-001
    2.0004593418712400e+000 -9.7879617798699947e-001
    2.0000907091185809e+000 -9.9052111308729729e-001
    2.0051216473104119e+000 -1.0741723110591492e+000
    2.0110662298337409e+000 -1.1108746793367332e+000
    2.0173722798842255e+000 -1.1407759916011990e+000
    2.0532129324014190e+000 -1.2588150716508701e+000
    2.0086786126520946e+000 -1.0975993847706087e+000
    2.0032733246124987e+000 -9.4440028160303513e-001
    2.0669101118756306e+000 -7.7263068467731910e-001
    2.0200305073861116e+000 -8.6813215853141223e-001
    2.0095981320898852e+000 -1.1028865939207586e+000
    2.0765696093342663e+000 -1.3176328592561475e+000
    2.1748597846657285e+000 -1.5146344928922038e+000
    2.0363471810993659e+000 -1.2096871944864089e+000
    2.0002778356615476e+000 -1.0168078997946199e+000
    2.0073876713674155e+000 -9.1766293548224709e-001
    2.0143247783869072e+000 -8.8726210476566147e-001
    2.0044593143431828e+000 -9.3541434669348533e-001
    2.0054702066112267e+000 -9.2872370282353234e-001
    2.0000226761226108e+000 -1.0047732968139782e+000
    2.0047846890277383e+000 -1.0716051492541125e+000
    2.0579891981575442e+000 -1.2715433260044828e+000
    2.0236323163757781e+000 -1.1659976680069959e+000
    2.0000510223605579e+000 -9.9288247181470557e-001
    2.0464747850717604e+000 -8.0640851649851508e-001
    2.0267400207657302e+000 -8.4930058013040122e-001
    2.0292045456738181e+000 -1.1861183713402914e+000
    2.1310258370705570e+000 -1.4333685689819819e+000
    2.2108402038903132e+000 -1.5765396215836878e+000
    2.0509105880155616e+000 -1.2525203948237895e+000
    2.0000510223605579e+000 -1.0071685505458523e+000
    2.0207259421636903e+000 -8.6602540378443860e-001
    2.0509105880155616e+000 -7.9839019319177218e-001
    2.0180183819889375e+000 -8.7447463219520627e-001
    2.0069808240170177e+000 -9.1986621100779975e-001
    2.0008168266626032e+000 -9.7182531580755016e-001
    2.0126415297530542e+000 -1.1189328504698528e+000
    2.0695933859617890e+000 -1.3008872711759816e+000
    2.0497806247879549e+000 -1.2493900951088488e+000
    2.0002041128749508e+000 -1.0143892286722964e+000
    2.0824320007574411e+000 -7.5116297170179125e-001
    2.0454006426649829e+000 -8.0842025400568374e-001
    2.0751433915982238e+000 -1.3142574813455417e+000
    2.2081115584165536e+000 -1.5719651332536895e+000
    2.2365751949221009e+000 -1.6188544268007588e+000
    2.0737327469798390e+000 -1.3108953436265409e+000
    2.0005671345640721e+000 -1.0240998426935131e+000
    2.0121044734578200e+000 -8.9586556318241028e-001
    2.0579891981575442e+000 -7.8644587215306150e-001
    2.0335704689567691e+000 -8.3279552538229584e-001
    2.0044593143431828e+000 -9.3541434669348533e-001
    2.0002778356615476e+000 -9.8346993586692755e-001
    2.0412414523193152e+000 -1.2247448713915892e+000
    2.1157213603101570e+000 -1.4029247591580445e+000
    2.1015833514169913e+000 -1.3735348332475337e+000
    2.0006862941312571e+000 -1.0265426104411568e+000
    2.2549705841069860e+000 -6.0669446667640337e-001
    2.0126415297530542e+000 -8.9370867928320141e-001
    2.0723375882640833e+000 -1.3075463354523382e+000
    2.2845748726354009e+000 -1.6943930305379225e+000
    2.4321888396045468e+000 -1.9081100539278528e+000
    2.1948430137208272e+000 -1.5494546513529175e+000
    2.0998950078743439e+000 -1.3699315051370720e+000
    2.0317850582774448e+000 -1.1948831176060211e+000
    2.0020496317036285e+000 -1.0463092718070155e+000
    2.0016403378220176e+000 -1.0413295567002641e+000
    2.0497806247879549e+000 -1.2493900951088488e+000
    2.1251457962975464e+000 -1.4218237351419298e+000
    2.2395700438234174e+000 -1.6236882817719775e+000
    2.3243474435977314e+000 -1.7543289038582877e+000
    2.1700935044113083e+000 -1.5061482298473723e+000
    2.0000226761226108e+000 -1.0047732968139782e+000
    2.2336081212477654e+000 -6.1956034791753500e-001
    2.0121044734578200e+000 -8.9586556318241028e-001
    2.0228869496966944e+000 -1.1631599960755992e+000
    2.1433105018688434e+000 -1.4569408292465591e+000
    2.3685476328517558e+000 -1.8187062180825984e+000
    2.3021389551410207e+000 -1.7211229331292393e+000
    2.1772766735418214e+000 -1.5189096793994135e+000
    2.1138916352972577e+000 -1.3991949395538992e+000
    2.0869967789998038e+000 -1.3416407864998741e+000
    2.0642871125925697e+000 -1.2877219607125077e+000
    2.0869967789998038e+000 -1.3416407864998741e+000
    2.1585629635155055e+000 -1.4852968963237645e+000
    2.2518326935398019e+000 -1.6433017156427363e+000
    2.1391365457847873e+000 -1.4490103506566001e+000
    2.0008168266626032e+000 -1.0289915108550529e+000
    2.0363471810993659e+000 -8.2665998661295681e-001
    2.1370794401599271e+000 -6.9200667586130982e-001
    2.0949324644933949e+000 -7.3572032979232316e-001
    2.0292045456738181e+000 -8.4308617433352684e-001
    2.0149099867422122e+000 -8.8512117274747182e-001
    2.0100756305184242e+000 -9.0453403373329089e-001
    2.0014528286670248e+000 -1.0388493253557416e+000
    2.0121044734578200e+000 -1.1162389102754098e+000
    2.0354083960790277e+000 -1.2067064062468522e+000
    2.0392434561621333e+000 -1.2186907321349891e+000
    2.0073876713674155e+000 -1.0897247358851683e+000
    2.0236323163757781e+000 -8.5763464836878212e-001
    2.0475627875559659e+000 -8.0439966653984374e-001
    2.0443402985438439e+000 -8.1043490406559526e-001
    2.0567735105731830e+000 -7.8842984571972019e-001
    2.0949324644933949e+000 -7.3572032979232316e-001
    2.2744275165103058e+000 -5.9568339718127061e-001
    2.1606699033511539e-007 3.4523822656701869e-002</input_scale>
  <output_scale>
    5.2631578947368418e-001 4.9999999999999994e-001
    5.2631578947368418e-001 4.9999999999999994e-001
    5.2631578947368418e-001 4.9999999999999994e-001
    5.2631578947368418e-001 4.9999999999999994e-001
    5.2631578947368418e-001 4.9999999999999994e-001
    5.2631578947368418e-001 4.9999999999999994e-001
    5.2631578947368418e-001 4.9999999999999994e-001
    5.2631578947368418e-001 4.9999999999999994e-001
    5.2631578947368418e-001 4.9999999999999994e-001
    5.2631578947368418e-001 4.9999999999999994e-001
    5.2631578947368418e-001 4.9999999999999994e-001
    5.2631578947368418e-001 4.9999999999999994e-001
    5.2631578947368418e-001 4.9999999999999994e-001
    5.2631578947368418e-001 4.9999999999999994e-001
    5.2631578947368418e-001 4.9999999999999994e-001
    5.2631578947368418e-001 4.9999999999999994e-001
    5.2631578947368418e-001 4.9999999999999994e-001
    5.2631578947368418e-001 4.9999999999999994e-001
    5.2631578947368418e-001 4.9999999999999994e-001
    5.2631578947368418e-001 4.9999999999999994e-001
    5.2631578947368418e-001 4.9999999999999994e-001
    5.2631578947368418e-001 4.9999999999999994e-001
    5.2631578947368418e-001 4.9999999999999994e-001
    5.2631578947368418e-001 4.9999999999999994e-001 1. 0.
    5.2631578947368418e-001 4.9999999999999994e-001
    5.2631578947368418e-001 4.9999999999999994e-001
    5.2631578947368418e-001 4.9999999999999994e-001
    5.2631578947368418e-001 4.9999999999999994e-001
    5.2631578947368418e-001 4.9999999999999994e-001
    5.2631578947368418e-001 4.9999999999999994e-001
    5.2631578947368418e-001 4.9999999999999994e-001
    5.2631578947368418e-001 4.9999999999999994e-001
    5.2631578947368418e-001 4.9999999999999994e-001
    5.2631578947368418e-001 4.9999999999999994e-001
    5.2631578947368418e-001 4.9999999999999994e-001</output_scale>
  <inv_output_scale>
    1.8999999999999999e+000 -9.4999999999999996e-001
    1.8999999999999999e+000 -9.4999999999999996e-001
    1.8999999999999999e+000 -9.4999999999999996e-001
    1.8999999999999999e+000 -9.4999999999999996e-001
    1.8999999999999999e+000 -9.4999999999999996e-001
    1.8999999999999999e+000 -9.4999999999999996e-001
    1.8999999999999999e+000 -9.4999999999999996e-001
    1.8999999999999999e+000 -9.4999999999999996e-001
    1.8999999999999999e+000 -9.4999999999999996e-001
    1.8999999999999999e+000 -9.4999999999999996e-001
    1.8999999999999999e+000 -9.4999999999999996e-001
    1.8999999999999999e+000 -9.4999999999999996e-001
    1.8999999999999999e+000 -9.4999999999999996e-001
    1.8999999999999999e+000 -9.4999999999999996e-001
    1.8999999999999999e+000 -9.4999999999999996e-001
    1.8999999999999999e+000 -9.4999999999999996e-001
    1.8999999999999999e+000 -9.4999999999999996e-001
    1.8999999999999999e+000 -9.4999999999999996e-001
    1.8999999999999999e+000 -9.4999999999999996e-001
    1.8999999999999999e+000 -9.4999999999999996e-001
    1.8999999999999999e+000 -9.4999999999999996e-001
    1.8999999999999999e+000 -9.4999999999999996e-001
    1.8999999999999999e+000 -9.4999999999999996e-001
    1.8999999999999999e+000 -9.4999999999999996e-001 1. 0.
    1.8999999999999999e+000 -9.4999999999999996e-001
    1.8999999999999999e+000 -9.4999999999999996e-001
    1.8999999999999999e+000 -9.4999999999999996e-001
    1.8999999999999999e+000 -9.4999999999999996e-001
    1.8999999999999999e+000 -9.4999999999999996e-001
    1.8999999999999999e+000 -9.4999999999999996e-001
    1.8999999999999999e+000 -9.4999999999999996e-001
    1.8999999999999999e+000 -9.4999999999999996e-001
    1.8999999999999999e+000 -9.4999999999999996e-001
    1.8999999999999999e+000 -9.4999999999999996e-001
    1.8999999999999999e+000 -9.4999999999999996e-001</inv_output_scale>
  <weights>
    <_>
      -4.5233771295156050e-004 -3.5241905583150296e-002
      1.7401833928666292e-002 1.7820386440280691e-002
      -3.9284041387542910e-003 -1.4555381253196139e-002
      1.7889667819968057e-002 2.3088976994185949e-002
      -1.9577364791762811e-002 8.8030844938597544e-003
      -1.0117143247278979e-002 1.9704007730732749e-003
      3.5020672501433793e-002 -1.4745120984025943e-002
      -3.1969273477915039e-003 4.0451147217027876e-003
      -2.1928954662856284e-002 -3.8122643633702932e-003
      -9.9288872894847165e-003 -2.1586095434544313e-002
      -2.8064188455508683e-002 4.5770092615470666e-002
      3.7711182115123692e-003 -3.2709814832516199e-002
      4.4336624094314771e-003 9.9424440551601698e-003
      -2.1213274917584986e-003 2.0996604291185064e-002
      3.1937451008009383e-002 -1.2560169870162000e-004
      -4.3910774217218528e-002 8.2760478200975443e-002
      -4.8000542709634034e-003 -2.3360734735178548e-002
      1.3942686706273017e-002 -1.8445352596066798e-002
      -1.0348220262498273e-003 -5.5009213719165333e-002
      -1.8997611722958569e-002 2.0053033920930146e-002
      5.2113124244846501e-002 6.1289916313228016e-003
      1.0716839527663296e-002 -4.5097482678746279e-003
      -2.1439656806046703e-002 2.8949785357259169e-002
      -6.5867240348517660e-003 5.6060612507157256e-002
      7.0522433601752546e-002 -5.6553513363498580e-003
      1.1487696120733602e-002 6.9420361792117960e-003
      -5.6046824644640912e-002 3.3565107123576347e-002
      -1.9716482453039069e-003 -2.5032541786136373e-002
      -3.5192654703828298e-002 -1.7157988324063726e-002
      4.6509575316682102e-002 -1.5213543045526913e-002
      5.1109836689499453e-003 2.2488856166919180e-003
      6.5909598205599607e-003 -6.3872743619897638e-003
      3.2903754488821171e-002 8.9852153554940209e-003
      -3.8138095216497934e-002 -3.2281266374644832e-002
      -4.2835625127271418e-002 -3.5855437444231365e-003
      -3.5137727382920682e-002 3.5703200202644961e-002
      1.5079401434324709e-002 -7.2594777790046848e-003
      -4.9295298459867229e-002 5.2343652169322269e-003
      -9.7148208450977620e-004 -3.1188586370558120e-002
      -3.9956360631618774e-002 2.7940248867767491e-002
      7.9731567499029119e-005 -1.8984613381969086e-002
      -1.3898736374088787e-003 1.1699876347959964e-002
      4.4091077984029911e-003 -1.1714912888944603e-002
      -3.9993021397468610e-002 -1.2739969647389302e-002
      4.4198355657347303e-002 -3.9552858937304024e-003
      -2.2629264483785959e-002 -1.2558662110727127e-002
      1.3067533422057237e-002 1.1092676770817473e-002
      3.2084031090542309e-002 -2.5578910688752406e-002
      -2.1938036442243045e-002 8.5823610487783860e-003
      -1.8532326086695708e-002 -4.0929851443078646e-002
      3.7149461408673812e-002 -3.7379368216303803e-003
      -8.7007560368963528e-003 -2.5584822891453456e-002
      -2.7409754203765065e-002 -3.9167298693600541e-002
      -1.9994727453906690e-002 -2.3078524502614613e-002
      1.3298240233286917e-002 2.1767225921722744e-002
      -8.1123116114131290e-003 -2.2229994214940469e-003
      -2.6654232886749278e-002 9.3641594153398341e-003
      -1.0931132812257818e-002 1.1426180459026231e-002
      -4.1085728455761361e-002 -5.2234826762388310e-002
      4.5428753183315518e-002 -2.2618635914990481e-002
      -3.9976832286833623e-003 4.5590015772514189e-002
      -1.3830653995756359e-002 -8.1844699280816998e-003
      2.2536056678213637e-002 -1.0334094974208505e-003
      -7.2052027027257465e-003 -1.8079921889221008e-002
      4.2620158885732805e-002 6.8025579214784762e-002
      4.4846150056781213e-002 8.4909284551291819e-002
      8.3127110942900744e-003 5.6401239040882248e-002
      -2.6263977607729024e-002 -4.5376042900659086e-003
      3.1927623846360623e-002 -2.2107097952223987e-003
      -7.7058274067136083e-003 -3.3434180851313611e-002
      4.1341227806051671e-002 -6.9411567633428112e-003
      1.1811118932965475e-003 -6.5940456714739352e-003
      9.8792424156663363e-003 3.9795093935189430e-002
      1.5889152588576254e-002 2.1067341204981355e-002
      1.6492948282414231e-002 1.3478354477046237e-002
      -3.8209899058130139e-003 -1.0718380711902193e-002
      7.5233881019061621e-003 1.5883197226176073e-002
      -7.8157081739658168e-003 -5.4395534056370437e-003
      -1.6371137534400608e-002 3.9834982562517968e-002
      -4.9494619551589177e-003 -1.0275489445516353e-002
      -1.5385764177722460e-002 -3.4831750548716893e-002
      -4.9239173867508867e-002 5.3137975241564279e-002
      2.5694705980583175e-002 -5.2050795366345215e-002
      3.7239347696091704e-002 2.0677624134255012e-002
      -5.0510183935833272e-004 2.7078673689981098e-002
      -2.0749533687528746e-002 2.3770934431892369e-003
      5.0591673171264950e-002 -1.6508771694643588e-002
      -9.6084876790300897e-003 2.1199993794877359e-002
      1.3212200981476033e-002 1.9663172156568126e-002
      4.2700564239580095e-002 -2.3797447749652010e-002
      -3.2984404294858834e-002 -3.2204378760895630e-002
      -2.3627596162262787e-002 7.4480628139907325e-003
      -1.6246765084715384e-002 -7.1455472224489364e-003
      2.0442948643217811e-003 5.4435601440000914e-003
      1.9710338085494893e-002 3.7135045998301114e-002
      1.9868028324245238e-002 -1.7928819709914938e-002
      3.3273573943279826e-003 -7.6590209265713595e-003
      -1.1264157600193855e-002 3.0800424325670490e-002
      -7.2685284087147745e-003 2.1490862752055620e-003
      -9.1515739816745000e-003 -5.4947159988678780e-003
      1.0322983485336156e-002 3.2697797124159350e-002
      -1.6632025774930219e-002 1.8691230199844103e-002
      8.8155090097448152e-003 3.8318772722011285e-002
      1.5277660599486086e-002 9.1550515152455814e-003
      1.6768947325774552e-002 -3.2550291966297128e-002
      2.1873288371456339e-002 -2.2192356595366999e-002
      -1.9879099689201696e-002 -2.9634164176703084e-002
      -2.8500331849492652e-003 -4.5549488327895023e-002
      5.7554686734100872e-004 -1.5820533918786607e-002
      -3.7461005820120269e-002 4.5403704828326022e-002
      -8.7552405773152417e-003 4.3296021667167880e-002
      -1.4648662219550586e-002 -1.3197418621110112e-002
      3.4777349552534233e-002 -1.6673491859682869e-002
      1.3343529188697457e-002 2.7128647623914232e-002
      -2.2103541563157068e-003 -2.0023716928923151e-002
      -8.2517789860930349e-003 1.8389960622855528e-002
      3.0277599872297325e-003 -5.9715859971923137e-003
      1.2868473167641633e-002 -6.3353140521291047e-003
      -4.1667754151581679e-002 4.6772442841116072e-003
      1.8849989613151871e-003 5.3719510703628230e-002
      -2.6181652823497385e-002 3.9038445808975896e-003
      -3.0905060631941393e-002 -1.0867653861691334e-002
      -1.8907634525438352e-002 -8.6275418513390555e-003
      -1.5602869068701007e-002 1.7573153529638140e-002
      -1.6432525146305062e-002 -4.6458208409303542e-003
      -4.9598987707345872e-003 1.3243064255124145e-002
      1.5002439235377674e-003 -6.6903856847757180e-003
      -8.3139904905976739e-003 -1.7509389420566710e-002
      2.5189330420638704e-002 -1.1307086029872611e-002
      -7.9697071153381881e-003 -2.8438475463692301e-002
      2.7450425514833971e-002 -2.6234826521897455e-002
      3.1071738126631384e-002 -2.3192592944952871e-002
      -1.4587068153568740e-003 1.0253072418700791e-002
      2.6271666904487778e-003 -1.3403790983276650e-002
      -2.1762379475167288e-003 2.4419233271826626e-002
      -1.1493222796917186e-002 -5.8868832834629112e-002
      1.7563458641943582e-002 -3.5111161654046999e-002
      5.5556465186522739e-003 -1.2615277598930344e-002
      -4.0119504461755662e-002 -2.6366160582048079e-002
      -3.3769334876924875e-003 -5.8728529760793714e-003
      3.4618553181581031e-002 1.3033702163248678e-002
      -4.3604948493192866e-002 2.9792307405561366e-002
      -2.7924226821556972e-002 -1.5836024859398536e-002
      -9.7386248833672071e-003 -1.8437912747819963e-002
      3.1475753523426533e-002 -5.6871739003171294e-002
      -2.5071500663004051e-002 -8.1834550556628746e-003
      -3.7283574753785222e-002 5.6098613614096141e-002
      1.1627626886037147e-002 4.3203872591960806e-003
      6.5926937411142916e-003 -1.5235880410710485e-002
      -4.2681019870068955e-002 -9.1336793133943422e-003
      -1.7587811966246345e-002 4.8122123196392523e-003
      -1.6753654864822762e-002 8.3695312054154741e-003
      3.6122367878786976e-002 -1.2026594086838791e-002
      5.4868062642616962e-003 -1.2762749158048980e-002
      -5.2914107044895263e-002 1.6301957153027905e-002
      9.1509634220283108e-004 3.3252102704487634e-002
      1.1788890318494481e-002 -5.3003012426365972e-002
      -1.1420044477816580e-002 -1.9917716692921882e-002
      4.0252510734479753e-002 8.3557444147430663e-003
      1.7441161229508157e-003 -1.4566867596613907e-002
      -5.4076395532873809e-003 2.6876510901332737e-002
      3.1034803063306826e-003 6.8197253162980498e-003
      3.2613866772424921e-002 2.1085805934017831e-003
      5.5602787039996581e-004 2.8910734873362570e-002
      1.7921131812379937e-002 -2.3181954622707047e-002
      1.8329719730821648e-002 1.9311354713630217e-002
      1.5085836067385299e-002 -7.2090064479842439e-002
      4.3952054005513719e-002 -1.8721648296299038e-002
      3.8982528743734049e-002 -1.5633728814153092e-003
      8.3436726190090852e-003 2.1989456813733474e-002
      -1.1373732284712586e-002 4.8628169545475962e-002
      1.0818310846697297e-002 8.6543923595275695e-003
      5.3189652935756767e-004 2.8878060833325617e-002
      -1.0469074330617703e-002 7.2061222829630428e-002
      5.5958339256946966e-002 -3.0738007997263971e-002
      1.1829759961296944e-002 2.0892894984267083e-002
      4.8745535935129161e-003 -4.6545059698908507e-002
      2.1129341831252701e-002 -5.7186161601337292e-002
      1.1500542577143537e-002 -8.6348825733406603e-002
      -8.9237352690385539e-003 1.7238576154043738e-002
      -6.0231326862171530e-003 5.2533984397160234e-002
      5.9229143051858068e-003 -3.7621480614850066e-002
      -2.7927496011737850e-002 4.9518087925316749e-002
      -1.6768520211564036e-002 9.7077690984519752e-002
      -2.2935724184826565e-002 -5.2040911902107898e-002
      5.9330119400401643e-002 1.4739632471299897e-002
      -3.3994004591500621e-002 4.7679486507657472e-002
      -1.4775170538086524e-002 -1.4343054987535644e-002
      5.4006066855127335e-002 2.0797881247989553e-002
      3.4265886578577669e-003 2.4180015707193626e-002
      -3.3216321272778807e-002 -2.7058661275133077e-002
      -9.8946613946828188e-002 -4.0814238672211307e-003
      -3.8253844526189406e-004 6.1565525359128993e-002
      -1.3962317563683371e-002 4.4420028592454572e-002
      1.6884779356377198e-002 -7.4651228748983745e-003
      1.4606266443651129e-002 -6.9355277752353270e-002
      -7.5091414757241766e-003 4.1954758621275214e-002
      1.2492958199907539e-002 -2.9116151380751971e-002
      1.2502527481202492e-002 1.0366288429101388e-002
      -1.4774976404181605e-002 3.7270836538099865e-002
      2.8485541933684149e-004 3.3304820211156730e-002
      -1.1217148290681551e-002 -6.8677350198955031e-002
      6.4725622327684871e-003 6.2794392333241304e-003
      5.8195929255506942e-002 2.1260279039896573e-005
      -1.4993764701283104e-003 7.0841250666380234e-003
      1.6566096844804441e-002 -6.4342806361058621e-003
      -3.0563258459117740e-002 -3.3408890745173218e-002
      -6.8566442785474783e-004 7.5142010978271598e-002
      5.6884819178389407e-003 1.1234022461504919e-002
      -1.0700578902765052e-001 1.2133753736560419e-002
      3.4427314937446367e-004 1.7765570680505138e-003
      -1.1987297874562038e-002 -2.2278082632316360e-002
      -3.9236943230324041e-002 3.0532539507462392e-003
      1.7467257308135614e-002 3.9665013935464496e-002
      -2.3608127955625836e-003 -3.7767350222667022e-002
      1.3826722900103337e-002 -8.8469966081229076e-002
      -5.0136902973558120e-002 -7.0241289483294811e-003
      2.3748295847441696e-002 3.8354928549383521e-002
      1.8391527684555587e-003 2.1342427255411710e-002
      4.2313394323625492e-002 -1.7916439969003592e-002
      1.3999438968991801e-002 -2.6586616118370959e-002
      -2.8008876897757458e-003 2.4892381640236480e-002
      -4.3142693624148888e-002 2.6781267342462521e-002
      -7.4626082386037727e-004 -4.0470272016345371e-002
      5.2911605635049173e-002 -2.9073988283419307e-002
      -1.0346460617553808e-002 5.2573786219529482e-002
      -2.1720697458894041e-002 1.3912970088716019e-003
      -4.0022908161024905e-002 -3.2446958581675914e-002
      -3.9389649535462409e-002 -1.3119213085112970e-002
      3.9593629645521759e-002 -7.1675333367047955e-002
      5.4887444429806816e-002 2.9466511811066347e-002
      -5.3436379650626573e-002 -6.9659572229262235e-003
      2.2075565726020943e-002 -2.5881666370349110e-002
      3.8421458283092277e-002 3.8334416033442731e-002
      -6.4310106764871477e-002 -5.1348881359982706e-003
      3.2645440142770577e-003 -1.6552167182912816e-002
      2.9530223334783882e-002 2.9896865928817871e-002
      -2.7277992316545270e-002 -3.5308473413561255e-002
      1.3705523040491937e-002 2.3053276280013418e-005
      -4.2266982590194790e-002 -5.0130069910545982e-004
      -1.2467692880109788e-002 -8.0253982357955025e-003
      -1.6166473953178932e-002 -1.3034788035174827e-002
      -2.6504674325571395e-002 -1.7963118014269655e-002
      -2.3122205063449430e-002 -5.2784058967178547e-002
      8.5226383177014649e-003 5.2312042675827404e-002
      -1.7876808847292218e-003 -3.1797751655098473e-003
      -1.0803779695301781e-002 2.5698799843803834e-003
      -2.7477996655834731e-002 5.7149828427704094e-003
      2.7943280085761225e-002 -1.4208697624769140e-002
      4.4956958839549969e-003 -8.7874863553224145e-002
      3.4337920857838898e-002 1.4124622456445499e-002
      2.5412614109235350e-002 -4.1212362713301774e-003
      1.2699249474861229e-003 1.9053695738144884e-003
      -2.3142145834372909e-003 -5.0033308637296686e-002
      4.1303456118793429e-003 7.8554757475937098e-003
      1.8131765532572935e-002 -1.3192158831005956e-003
      1.9300575678941355e-002 7.6669554255313951e-002
      8.4924973845678323e-003 4.1566689123014185e-004
      2.2824680735136989e-002 2.2770617316846764e-002
      2.8779213338649696e-002 -7.0542538940431943e-002
      2.4136165218360994e-002 4.2374584949080328e-002
      2.8826101887747601e-002 2.7675663398697287e-002
      4.7340922582555737e-003 6.8023375882316807e-003
      1.4356236571400867e-002 -4.5273407114711428e-003
      7.6674535289859881e-003 -1.2160559271595523e-002
      1.0058164863198988e-002 1.2034088679259503e-003
      2.0880492597658465e-002 -1.5984348823358013e-002
      3.0006599328208757e-002 1.5045763685176213e-002
      2.8969849033423280e-002 -1.1424754805790063e-003
      -4.9933352465683187e-002 3.4695400616007947e-002
      2.9474388885236579e-002 -6.3437197349456584e-003
      5.1501882844081658e-002 2.3490800650253638e-002
      -3.5617887938878914e-003 -2.0816647592359707e-002
      2.4470392133431336e-002 -1.6409523951364843e-002
      -2.4095267123209384e-002 4.7482958583550977e-002
      -1.0225534033711581e-003 -1.3061461503768045e-002
      -5.2509125243779486e-002 5.2611832868019709e-002
      -8.1037238739576963e-003 -4.1537633332198426e-002
      -7.3512322639666446e-003 1.5935334127478780e-002
      -2.9296582467582707e-002 2.4403066299488102e-002
      -1.5032957249845295e-002 3.5244012534777248e-002
      5.0079652750446249e-002 1.0743720819326577e-002
      -3.0396516949748882e-002 -2.3642816034882115e-002
      5.0092229651316350e-002 -1.4506404261461235e-002
      -1.9555860273321200e-002 -3.1195178688620939e-002
      2.9556726978436140e-002 -2.5297986179149664e-003
      6.2956432065109230e-003 3.9923046364650175e-002
      7.2039804780966922e-004 7.1210997663830711e-002
      -3.2152109285289443e-002 1.6178007295097215e-002
      2.0899863498711334e-002 -5.4931381616682450e-002
      -1.0183249268447768e-002 -1.1936571012521088e-002
      -4.7214916238878003e-002 -1.1125957697091241e-002
      -3.2278895935878717e-002 -3.6223615579184749e-002
      1.7385041095354093e-002 5.0957930199839385e-003
      -2.5634367938973709e-002 -2.8064791476479244e-002
      -2.7663980060002050e-002 -2.3633123543314234e-003
      -3.0976592926644082e-002 -2.8004017576845227e-002
      3.8736788728931229e-002 -1.8972436193445245e-002
      2.3166021924595215e-002 -1.8336224076163102e-002
      2.4030499422263079e-002 -2.7608072993574633e-002
      3.1387232461652738e-002 -3.8211672976509126e-002
      2.5461698532029276e-002 6.3197148127146401e-003
      2.7370581015930522e-003 -1.9086772404791789e-002
      1.2993964239409002e-003 -2.3988740222150185e-002
      3.1851299691973171e-003 2.2054199879750904e-002
      -1.3228106427774894e-002 -1.0398975459665115e-002
      4.1806039763208865e-005 9.3459318939262750e-003
      -5.3194951176325526e-003 -2.4312084830761249e-003
      6.1598040114471954e-005 -2.9794502699772692e-002
      -5.5955884785747773e-004 -2.3596702738623500e-002
      -1.7008748658853531e-002 -1.9406146973901441e-002
      -1.8319507736907430e-002 3.0956999044907545e-002
      -1.9990171930305205e-002 -3.9516619609522722e-003
      1.5966524206348458e-002 3.0550729656537729e-003
      -6.4841900211375361e-003 3.9137822898707222e-002
      7.4273442605333794e-003 -2.8781202437248771e-002
      -2.6571753793611354e-002 1.6647382016514060e-002
      6.7101199759732385e-003 -2.7948078586989191e-002
      1.3436343744601901e-002 -1.9579271677887446e-002
      -1.9922570731058631e-002 -1.9723988350134006e-003
      -1.7074963304670242e-002 9.4592765141548914e-003
      -9.8348104002081646e-002 3.3758773729650783e-003
      -2.7030239216101780e-002 2.7346485146717489e-003
      2.8086842214246618e-002 -3.0372223867332866e-002
      3.2138341538887343e-003 -4.3542676042544588e-002
      1.4448036362052732e-002 6.6051555483048349e-002
      2.3723356382383973e-002 -9.9675646997956377e-002
      -2.4446254599868416e-002 -2.4634576359900368e-002
      -9.5713358256685234e-003 -3.0617430885038675e-002
      -3.5031505289633967e-002 4.3365157406217852e-003
      -1.4294125896478075e-002 -6.2565487528667391e-002
      -4.1375777672614366e-003 -1.7547954905977329e-002
      -2.6490839982850033e-003 5.0828111133411395e-002
      1.1105300595371797e-002 -2.1362530339299995e-002
      2.2650391102276120e-002 6.6249490766643621e-003
      1.7599494864141526e-002 -2.5999454298282019e-002
      1.0951990929781701e-002 2.8269309141619747e-002
      5.6861711927435075e-002 4.9259938909642538e-002
      2.9528587559919783e-002 1.0884863647682990e-002
      3.8345533689307730e-002 -2.3230209412296591e-002
      4.0925609943622057e-002 -1.8343093081291790e-003
      -3.2752180826170874e-002 -1.4052634285128844e-002
      1.0160645444394012e-002 -3.7881439592157930e-002
      -8.2714404978448414e-003 -7.0860621773197588e-002
      -6.9413307981695163e-002 1.2021567371886085e-002
      3.5961785825865109e-002 5.1217358778070333e-003
      2.4589573703169155e-002 2.8268287559248064e-002
      -3.1234129639077464e-002 -1.2812327449378057e-002
      -5.2517296825057343e-003 1.6267401816989820e-002
      3.9931733017762160e-003 2.1504257973269811e-002
      -2.6334347703693601e-002 -4.6170299761687595e-003
      2.1216221492373906e-002 -6.4453536335701514e-002
      -2.5540876048344409e-002 4.3740023840059469e-003
      -2.1623962143762082e-002 -1.9993466514014336e-002
      -1.0735068255728799e-003 1.7146527572840388e-002
      -2.8998484928502162e-002 -5.2005242485719727e-003
      1.6964686432272300e-003 -1.4961967697643319e-002
      -2.4388989096889524e-002 4.7410635066655535e-003
      1.4906358747228041e-002 8.1228748826024638e-003
      -1.2324798342453394e-001 -3.2709120546564434e-002
      -1.6408169346258047e-002 -4.8198440982138803e-002
      6.0174152108218265e-004 2.5664475673092650e-002
      -3.3626895213671314e-002 9.0417098724544509e-003
      1.6886110680777555e-002 4.8768801081030766e-002
      1.1220802649531160e-002 1.0387478060846196e-002
      1.4110945887743535e-002 -1.0996141154788579e-002
      3.5567073076516664e-003 5.3137395108391675e-002
      -5.5833137502210150e-003 2.8986339672465816e-002
      -1.5097650461853162e-004 -5.8479692634394115e-003
      6.5792911852301031e-002 9.7109082774301889e-003
      -4.3176259982468733e-002 3.3112737103912139e-002
      -3.7392281943942861e-002 2.1609710516751160e-002
      -1.4845728408146694e-002 3.6995727277459568e-002
      -3.4425216717522293e-002 9.7666508095616278e-003
      4.5670752883408224e-002 1.1802980559910119e-002
      2.8798593689348197e-002 1.0295078831938920e-002
      1.0873358157396493e-003 2.0421320001814392e-002
      -1.3045683657954251e-002 -3.4397168871892433e-003
      2.9551714041316755e-003 -6.9123873240035244e-003
      -5.3946476562613178e-002 1.0885185988904051e-002
      2.9441112073904253e-003 -2.3683404151693670e-002
      -3.2872753706922504e-002 4.3452580484758467e-002
      1.6557442549227600e-002 -1.2760787000945508e-002
      4.7828346602812141e-002 5.4481307189180629e-002
      1.1010061521328968e-002 -2.5002996356195809e-002
      1.9898495684415655e-002 -3.2341864764153634e-002
      1.0788177937556809e-003 -4.0060155935273652e-003
      3.3621174912572951e-002 1.7831371515552450e-002
      6.9671605724812846e-003 2.8671080102528713e-002
      2.3111042341828706e-003 3.7597619451403573e-002
      -5.2474214991868225e-002 6.3044809685350783e-002
      3.3330766633029661e-002 -2.2128871397832156e-003
      2.8061671751225610e-003 -2.3019072147376922e-003
      -5.4904150761519874e-002 -7.4491378391521920e-003
      1.2092513676216587e-002 -1.2419062020364793e-002
      2.0143051414762449e-002 -2.9887949976707657e-005
      -3.4435261038306290e-002 -5.0379613080776708e-002
      5.3809850963961988e-003 -2.6850121307369759e-002
      3.0571207953742210e-002 -9.1466397765765980e-003
      5.4302950718856297e-002 -6.0970665027328480e-002
      2.1020890594870757e-002 -2.0013537991134839e-002
      4.9083145390076697e-003 -6.1360485770292794e-002
      2.1796964654237860e-002 6.2130922803199047e-002
      6.2221901087671228e-003 -2.4301664219889108e-002
      3.5843508268022892e-002 2.5760777702334287e-002
      -4.0286517946256277e-003 5.3660150155592692e-003
      -3.5670410010692835e-002 -2.3643955341009097e-002
      -2.7564505866428547e-002 2.6000838285618763e-002
      2.1034957931706622e-002 -6.9930533222865993e-003
      -1.9538665444996488e-002 -1.4268581123998481e-003
      -1.2919665048353152e-002 -2.8629510177042530e-002
      1.3207176137440668e-002 -3.5659700857169269e-002
      -1.4179581605063926e-002 -3.0866328674840945e-002
      -1.2344096329080609e-002 5.6104436805466631e-002
      -2.7831189074574724e-002 1.9743932328480239e-003
      -2.3496526176338805e-002 -2.0403425326014510e-002
      -4.3770348634020011e-002 -1.6299843488200495e-002
      -7.3953052100531290e-003 -4.8216720802733114e-002
      -1.6692280957404961e-003 3.1568250793309609e-003
      -5.8011682948387128e-002 1.4044408664213890e-002
      -1.4411112769947316e-002 -1.8384144861587206e-002
      -6.0121358518227998e-003 1.3257373523549828e-002
      -1.9775013450578943e-002 -2.9676970630639687e-002
      -2.8422563219670197e-002 -5.9658157566209132e-002
      -7.6547722599368574e-003 3.3407060281955177e-003
      -2.7066985725969411e-002 -1.5133700936062068e-003
      -1.4723477962520661e-002 2.1276071643873663e-002
      2.2127807169528758e-002 -1.0111541859158205e-002
      -1.3394649666739656e-002 2.5771347975922190e-002
      7.3985379909897370e-002 -2.1069039471934836e-002
      -4.5251946299254824e-002 -4.5444924367944860e-002
      2.6073525923359566e-002 3.1179110640355983e-002
      -8.7227383270666436e-003 1.6800669917838636e-002
      -2.6313652350322413e-002 -1.6647232016108169e-003
      4.2439154633370654e-002 1.4994904256370225e-002
      -1.2133765449744075e-002 -5.4393869922565990e-003
      3.1342146883399750e-002 -1.3954211761022224e-002
      2.3791903570023268e-002 5.0588878014273718e-002
      3.2768915585004547e-002 -2.0448685236859838e-002
      -1.4740842097890099e-002 5.7754995848379566e-003
      3.0324078582609073e-002 -7.1007175397753393e-003
      3.0930224703970735e-002 -3.0821325875782696e-002
      2.6037506923637176e-002 -2.1115414132448574e-004
      1.5928935848328982e-002 -2.7079713150163422e-002
      1.1374672258563720e-002 3.6806933202674225e-002
      2.4752090328410789e-002 -7.7121719024931673e-003
      4.5283128794116043e-002 -2.3105164506698445e-002
      -6.4650034803494447e-003 1.4628309908608767e-002
      -2.6739011399727293e-002 2.1184822378639480e-002
      7.1249620170274657e-003 4.5619141801542347e-003
      2.4233739035911812e-002 -1.4483332564973652e-003
      2.5543626679188320e-002 -2.2802805892767838e-002
      1.2403985022558867e-002 1.1834078912092339e-002
      -5.7422889784312175e-002 -4.1953913168823853e-002
      3.2650858555363246e-002 -2.5353707829208574e-003
      2.1333372646256153e-002 3.6811517593804383e-002
      1.6502564689255150e-002 -1.4806548067389937e-002
      5.2936182237525503e-003 1.0135754205073786e-003
      8.3701404960641670e-003 -1.0934910094629739e-002
      3.5134126058299298e-002 -2.0490484836718250e-002
      -1.1138723280312599e-002 5.5297196922066222e-002
      2.9424261430692567e-003 4.3536950235595097e-002
      3.4427997464304465e-002 -2.0037214995802445e-002
      2.0263945550265464e-002 3.3238653175306866e-002
      1.5830022140570933e-002 9.4556356321910187e-003
      2.2334406898835153e-002 3.5036857601926526e-003
      -1.7820325663959247e-002 8.7059199668318328e-003
      -4.1589312325408983e-003 -2.0259919390188365e-002
      -1.3282503190501081e-002 1.6506172016317749e-002
      -3.7443096251424467e-002 1.0010443551513116e-002
      6.5033193350579879e-003 2.6253901415381024e-002
      -2.2431872100179859e-002 1.8207618910099182e-002
      2.3097774574319788e-002 -1.1620316187894983e-002
      -2.0198151085306412e-002 -2.5278207227859926e-002
      -1.0113702465895252e-002 4.9350694979796725e-003
      2.5279757157460139e-002 1.7393948037798722e-002
      -4.5907852192751050e-003 -9.4154926743058292e-003
      -2.8812027910353061e-002 -1.0413350335551566e-002
      5.0893340991097546e-002 2.9407208679205358e-003
      1.0843730875171823e-002 -2.6825290540588999e-002
      1.2857301492057976e-002 -1.5572185138206714e-002
      5.4916145152872735e-002 -1.8826300671667441e-002
      1.6680643422042257e-002 5.7665008616179118e-002
      -2.0563623475452548e-002 5.8859319742968587e-004
      -1.4690971903072868e-003 -1.1027104689882758e-002
      -2.2408265180148910e-002 8.6437798756082151e-003
      6.3038981317141028e-003 9.0404785652223214e-003
      2.3152166218319680e-003 1.6682682425338997e-002
      8.4326186830122954e-003 2.2227651161019494e-002
      6.5140856316545472e-004 6.2859236753382247e-004
      -2.3446223267361544e-005 2.3177843357543200e-003
      2.8783000241538018e-002 -3.5953530408554166e-003
      1.1017755780103720e-002 -1.1012683095973409e-002
      -1.0600759680849380e-002 1.2280782925139381e-002
      -3.7459858614919447e-002 1.2879789918725213e-002
      2.6351854728108473e-003 -3.5250398202078849e-002
      1.4529614664182219e-002 2.4012199986791258e-002
      -1.6240679717646392e-004 -1.0316730058877311e-002
      4.2228594194570097e-002 3.1352007405719730e-003
      1.4389650387386099e-003 5.1069093655092259e-003
      -7.7102898172124124e-002 -1.1667871484568109e-002
      7.6907816714316558e-003 3.8334188149392677e-002
      -2.6195920518879767e-002 9.1250183411362290e-002
      -4.6249310192377378e-003 2.8499834143386339e-002
      5.0394787532066769e-002 1.4947367473817893e-002
      2.2471115850276623e-002 -8.7499552847095981e-003
      5.5962079516541800e-002 -3.9134632318453419e-002
      3.3560083580048000e-002 -3.5731004370224154e-002
      -5.2143920953292245e-003 -2.2662497096470392e-003
      3.1043038038059193e-002 4.5988463304203918e-003
      3.2234286520537313e-003 -3.3655564941157533e-002
      2.7116830786490655e-002 -4.2257522923704900e-003
      1.0315801750712098e-002 -2.3907609119610478e-002
      1.6156446839192616e-003 9.2465961259879138e-003
      -2.2762610034385112e-002 6.8039908068213114e-003
      -1.6485228626403732e-002 2.8293889094727067e-003
      -7.7741533216159403e-003 7.9153169537465456e-003
      2.3601174013448044e-002 -3.7601096925065365e-002
      -4.3060684146911370e-003 1.0671529043329952e-002
      6.3553724647594408e-003 2.8989608559733562e-002
      -7.5173220420831355e-003 4.1713551856573739e-003
      -2.8551708851414555e-003 3.6339407338089345e-002
      3.9095295731930275e-002 -6.9819463433367479e-002
      -1.4889211898834831e-002 5.2594920069170895e-002
      2.1716295503169614e-002 -4.9149834993420176e-002
      3.3858823457605824e-002 5.7761215610383873e-002
      -2.6012393758351477e-002 4.1028462991930990e-002
      -2.3255937828273898e-002 -4.8115690201828883e-002
      -4.8122636990764606e-002 -3.4500102266159002e-002
      -3.8067844370712638e-002 2.6723565693378814e-002
      1.0428541205860823e-002 5.8425875953385269e-002
      -5.6219456893175868e-002 -3.9278732976362983e-004
      -3.8886432820469420e-002 -3.2618610311648942e-002
      -1.7646182939707104e-002 4.9733448686205784e-003
      9.7053750783580531e-003 -1.8107617568470663e-003
      5.3621047012127289e-003 1.0138727128231057e-003
      -1.3281029993691931e-002 1.7253469333818862e-002
      -1.9444812704562758e-002 3.3493084599581120e-002
      -2.1448836171656716e-002 -2.8631946241700009e-002
      1.4186309132259748e-002 3.3236494963352708e-002
      3.4906985964628802e-002 -9.2583456442764146e-003
      -4.0123522600508471e-002 6.5390187356814348e-003
      -4.4330258523932568e-002 1.2601192369312441e-002
      7.1912013238108433e-002 6.1497131490727544e-003
      5.8354404926351973e-002 3.0732338280053145e-002
      6.2097506213962664e-002 1.0662389354085947e-003
      3.2973831344444114e-002 7.1237622602817310e-002
      -2.2799277529110196e-002 -1.1490719988143133e-002
      -4.8247912047808268e-002 7.1556366139152051e-003
      -7.1094208808861720e-002 2.2934566704514235e-002
      1.1401601835096099e-002 9.0340022329728015e-002
      -2.0528540494345326e-002 7.9612303705239987e-002
      2.2041205923832268e-004 3.4804309579444383e-003
      -3.9819002057561387e-003 -3.9478241942847915e-002
      2.0504862258549209e-002 -2.3614510172225048e-002
      3.2532156654022655e-002 1.5826719293559409e-002
      -1.2110455453654346e-002 -3.3087369757358550e-003
      -3.5988617212743254e-002 8.8309751710950821e-003
      9.6134217355007216e-003 1.9009707423809412e-002
      -1.4169765183773903e-002 2.9070470587619111e-002
      1.0720518213806575e-002 1.7121066714461036e-002
      -2.2006225389763639e-002 -5.1387295066253391e-002
      -1.2915119419772877e-002 -3.4765440728054688e-002
      -6.7194183062650584e-002 2.1237101178505816e-002
      -5.3356518866520132e-002 1.3486815433924043e-002
      -9.7980509769656377e-003 2.1610920644451838e-002
      -6.3168448299542263e-003 -2.9440619633168453e-002
      -6.9985712564894151e-002 5.0085482787289595e-002
      4.4490107288983713e-002 7.4179958959952651e-003
      8.7213719259805777e-004 5.4229213053403218e-002
      -2.1326931861420241e-002 -1.6993649943631926e-002
      -2.0866188042906391e-002 8.8552349750163194e-004
      5.3230721460983824e-003 4.4111445405498849e-002
      -7.4487846578159397e-003 -3.6940258055160199e-003
      -1.8762709012191316e-002 -2.9444098096894276e-002
      3.2695651801928124e-003 3.2473403941215929e-002
      2.9166518166206364e-002 4.8730369113124956e-002
      5.7072542455510328e-003 1.5368704979712992e-002
      -3.9942928876650317e-002 -2.4808622763856949e-002
      4.4459050114846195e-004 1.4428789951045042e-002
      2.3672201094083006e-002 -9.8741390817417229e-004
      2.1074792966372081e-002 -3.7548269788287479e-002
      1.5375627302476829e-002 5.1393329987673821e-003
      5.7887821488336981e-003 2.2633811135623464e-002
      -2.9017921467189936e-003 -5.1860093590760702e-003
      -3.3459048765886040e-002 -1.7754246287818846e-002
      7.1554733226429513e-003 2.0655989524341885e-002
      6.0366290366896516e-002 1.5280416351600917e-002
      -3.4836187222504943e-002 3.6381899085914070e-002
      1.9304032443351823e-002 4.0698580527508910e-002
      -7.4970207861999845e-003 8.8360996317248201e-003
      4.8252348070827004e-002 4.3132332054627402e-002
      1.6285817618916884e-003 2.5089206096391287e-002
      1.9872264841392959e-002 4.0720848438138332e-003
      3.1805453101740530e-002 4.0247560584741431e-002
      2.7238572116569503e-002 2.8742652489628551e-003
      -2.7296941939172977e-002 -8.1298894686853296e-003
      -6.6902182784683026e-003 -5.9340551661146462e-002
      -5.1403126829957712e-003 -1.9623230158956541e-002
      -4.9674735918340637e-002 3.6343281075729046e-002
      -1.4802327894745646e-002 7.2079670177353913e-003
      -4.2654583412430454e-002 -1.3737729461436013e-002
      1.5508334010250665e-002 -3.5828235077770901e-002
      1.7963618469370744e-002 -4.2670735306444309e-003
      1.7587743165394455e-002 2.3959114010710385e-003
      8.0308800252961252e-003 6.0193675404244772e-003
      -1.1259992649648137e-002 -5.0048641131146378e-003
      2.0073130564396354e-002 9.3988371254628056e-002
      5.1515846041131866e-002 3.8335464895525150e-003
      3.1874174460953850e-002 2.4198423854565280e-002
      -4.8025864394239479e-003 9.2938906351809555e-003
      5.3736627380335911e-002 -1.3133943694837695e-002
      -1.1806625316664539e-002 2.0128797011450084e-002
      -4.4103260135327248e-002 -3.3407754820486087e-002
      2.0977688127049383e-002 7.1160036656479951e-003
      1.3050931158124137e-002 -8.6680616407991439e-004
      -2.0182411889445077e-003 3.1249162362749477e-002
      1.5534289457507013e-002 -5.3990250539185441e-003
      2.4490034392970180e-003 4.8755691200997866e-003
      -1.8520917856695480e-002 -1.3843604866253653e-002
      -7.2666703144643003e-003 -5.5897609102151195e-003
      8.2771846892757146e-003 -5.9253501956261743e-002
      -3.7091955353541995e-003 1.9193321716363072e-002
      -6.9608469485604896e-002 3.8232805403203392e-004
      -4.6705905865573041e-003 9.1387655666432272e-003
      5.4792270004562981e-004 -4.4413853432759519e-003
      9.0818812780918117e-003 -1.8406655016504288e-002
      -1.0583457754275973e-002 -4.7641863236735733e-003
      9.1920472803483583e-004 1.1687605762620377e-002
      5.8370733242466000e-002 3.9750505255131033e-002
      -6.7749663779340039e-002 -5.1690479206810372e-002
      -3.3317254081069440e-002 1.0269329896816219e-002
      -1.8871881498138513e-002 8.9051266420542338e-003
      -9.5311439382241066e-003 -2.7269247313878364e-002
      2.0205969235499513e-003 4.3481850276470618e-003
      -3.3096578290956857e-002 1.9236657546935286e-002
      -2.6805953264659222e-002 -4.4312592017700013e-002
      -1.7263581867663039e-002 -3.7056063650591747e-002
      -2.4977905642875890e-002 5.7120354056204529e-003
      7.6103856121778161e-003 -7.6465246299806545e-004
      -6.0341785867534005e-003 2.2560645672694796e-002
      -8.4346776708797561e-002 -2.8949776714370318e-003
      -3.3219088071975794e-002 -4.3281873144856847e-003
      -1.3727381928325157e-002 -7.6998542265404668e-003
      3.4246632397501975e-002 -1.2762591334984192e-002
      7.1193782950773566e-003 1.1476271408912969e-003
      -1.8051769047767684e-002 3.8906207139609524e-002
      -1.2187299296507989e-002 3.1417234106541604e-002
      8.0086986989460797e-003 -4.0653233080892434e-003
      5.7610896582262119e-003 1.0646473038187644e-002
      1.9979753135369364e-003 9.1984718637946841e-002
      1.0940801065680515e-002 -3.4661399741786739e-002
      3.5929657479592522e-002 -5.8209030973489740e-003
      6.1555580463798646e-003 -3.3119372284151363e-002
      -2.5598703824331319e-002 6.1496501579834821e-002
      4.8635264840617715e-003 -6.4268198514264106e-003
      -1.2934096962427267e-002 -4.7013607663303975e-003
      -1.2719623037956002e-002 1.0405020429269178e-002
      1.8248254769045523e-003 6.2855220873502433e-003
      -7.2715443284341484e-003 2.4801632851477715e-002
      -4.4082191081834640e-004 1.8487012351480338e-002
      -2.9390789768153396e-002 -2.1445745375451613e-002
      -8.5854461817799124e-003 -6.1778387149871552e-003
      1.3504509066989972e-002 -3.7725159994158305e-002
      -8.6158458687304960e-003 -3.2803524392733211e-003
      5.1100320545820633e-003 9.1387179399153116e-003
      1.4988953715535346e-002 -1.2429242849195101e-002
      -5.4057532295238081e-003 1.5239229039588955e-002
      -9.1250340246337245e-003 6.9699736160819689e-002
      -2.1891108096114371e-003 -4.2080631610340391e-003
      -1.7284137566600327e-002 1.5707765863973173e-002
      4.0792092699467812e-002 5.9727718560598575e-003
      -4.8731937905572106e-002 -4.9812906800925380e-003
      1.0525204430352693e-002 8.1796285825480319e-003
      -2.2563441209370483e-002 2.0038085015517655e-003
      2.1841947336933488e-002 1.3629903740143359e-003
      -4.2510898699324631e-002 5.3154845215802075e-003
      -2.9759171699268428e-003 -2.7068700934564406e-003
      -4.7547192030705170e-002 2.1407494520544076e-002
      8.7971557160011163e-002 5.8275214918992934e-003
      1.0756959058225159e-003 2.6714485690785071e-002
      -2.5426935889133698e-003 2.2816417932410011e-003
      -2.3811986382708056e-002 -4.0118641650532957e-002
      -6.0229371501258509e-003 9.9187114057199335e-003
      2.1500347561426304e-002 6.3138608006316098e-003
      -4.1781221567023553e-002 -6.3260942509382079e-002
      9.1385360289362571e-003 6.4541016585677414e-003
      4.8288499283719449e-002 5.1969121918852862e-002
      1.8013651162041937e-002 6.0482306667266450e-002
      -9.8246879256946695e-002 2.7031527032285299e-002
      3.2885772685410483e-003 -3.7518987339514281e-002
      -2.5105026527029898e-002 3.8858629826497286e-002
      -1.2043498200270014e-002 5.6630542262733194e-003
      -9.7303605255796653e-003 4.2943518258625170e-002
      5.9383445543030058e-002 -3.4098906475726221e-002
      3.7419456141533046e-002 -2.7032581293894048e-002
      -2.3436372862279876e-002 -2.0840756042723192e-002
      2.6178937246651075e-003 -2.3194404394961468e-002
      1.4565670882119330e-002 -4.7349370613282349e-003
      -3.9116805647030706e-003 -2.8091186138269511e-002
      -1.8488143821421359e-003 -9.7658537784990673e-002
      4.2179033845436760e-002 2.7506938128823398e-002
      -3.2186132960472742e-002 -3.0629218712655424e-002
      3.6477355996750754e-002 3.4457712373037797e-002
      -3.8406482542433465e-002 1.9712130135210244e-002
      1.2918151767721849e-002 -5.6348617477325899e-003
      8.6693489993274545e-003 -3.2826171793242195e-002
      -2.5009495042102040e-002 -1.3927628462010332e-002
      -1.4452380508510341e-002 -3.3326539128754663e-003
      4.5296774971643569e-002 4.6021101250413561e-003
      -3.9816417878489859e-003 8.4026763529751244e-003
      -5.2326841295438102e-003 -2.1577366393505226e-002
      -5.8973065797477252e-003 1.6843858670463438e-002
      6.9007550061494866e-002 1.9599428386209918e-003
      -2.8498008598273436e-002 1.6818777526995028e-003
      6.4244840076688320e-002 1.1336179498999160e-002
      -7.5471625494899870e-003 -3.9623657664662852e-002
      -2.9099926415201580e-002 1.8738843181096282e-002
      -6.6682100718068252e-003 7.6216486295939186e-003
      -4.5610320253334745e-002 -1.8212321169203623e-002
      7.3051822224558301e-003 5.0552675211608056e-002
      3.4414610270710737e-002 -7.6219116540979515e-003
      1.4317394207606733e-003 4.0323562118516239e-002
      1.3326210186336803e-002 -3.2237470104339090e-002
      -9.5010205348833501e-003 2.8520623173268447e-003
      -1.0255423494437631e-002 -7.0838661606454122e-003
      -1.7460632970473500e-002 2.6362586817990218e-002
      1.0874949673444537e-003 -3.6443656073771084e-002
      -4.1158066653291449e-002 1.4050331810874820e-002
      1.0113444481441804e-002 1.5115664476760193e-002
      -1.0574712825180552e-002 -2.7510261021805840e-003
      -2.3734209010286753e-002 1.0224646286295713e-002
      4.7374304373063551e-003 7.3762394710777624e-003
      1.1616201469740494e-002 -8.8247321884530674e-003
      1.8653103719565606e-002 -2.7348293514649845e-003
      4.4819130737284579e-002 -1.3011665704383583e-002
      4.6293087441618306e-003 -4.3693552225293544e-002
      3.4499290480953801e-003 6.1346596309370073e-003
      4.7690332851011694e-002 -3.2930107542463082e-002
      1.5859323988846729e-003 2.1829202540326054e-002
      3.6058622427906653e-002 -3.0988979469303061e-003
      1.1041467315132130e-002 1.2185805819224918e-002
      -7.4615346155253543e-003 6.7368686341215296e-003
      6.8369666002823237e-003 -6.0963429934491626e-003
      3.2855369565460195e-002 1.1615426646901546e-002
      -3.6527417073099764e-003 3.2164766617024297e-002
      1.5444154463637325e-002 -2.5844663743519298e-003
      1.5607236570172905e-002 1.1518967544135511e-002
      1.0393612584114257e-002 1.3275400978973876e-002
      8.2669403913455310e-003 7.0498253432751965e-003
      5.8515783219842714e-003 -1.7777310343607123e-002
      -2.0966379873986050e-002 -1.2887794668283140e-002
      1.0958180710667070e-002 -1.9964076090388812e-002
      2.3525883536921741e-002 3.1332473944636112e-002
      -1.4075133682740743e-002 -1.1201572118614550e-002
      4.0607405739814473e-002 -5.4652086017460706e-003
      2.3008985855774843e-002 6.0581323166415601e-003
      -1.1007893185362858e-002 -3.5169413430365365e-002
      5.5306647192488925e-003 -7.2022993052497149e-003
      1.2796926449363330e-002 -6.3403430045456538e-002
      -1.0368819444377843e-002 1.2596644913169457e-002
      -1.2943940258828784e-002 2.0890866197950608e-002
      1.4511301649740124e-002 -2.0510403247677320e-002
      -7.2649008551774414e-003 -8.7194180162125184e-002
      -1.4657806181349136e-002 1.4770695563345223e-002
      5.4065056103124953e-002 -4.1208327564394652e-002
      1.1830967098057046e-002 -1.7824581768084928e-002
      -1.3364484102586916e-002 -2.7063806269453431e-002
      6.9733113436048202e-003 -1.6308962012622611e-002
      1.5544692742659912e-002 -3.2496854435065552e-002
      -3.3685302198735545e-003 -3.8840887077896798e-002
      1.0691465487901214e-001 -6.4911423618506468e-003
      -1.7906998427828211e-002 1.5084849454026488e-003
      2.0666522461384673e-002 8.5723092399902459e-002
      7.4582668456574892e-003 -4.5691561629675616e-002
      -1.8383425802279071e-002 -1.0055334643635058e-002
      8.7849309136686443e-004 -2.0727255615298111e-002
      -8.2510032249913259e-004 4.3659611472191585e-002
      6.4179243260432247e-003 -1.7135183705567200e-002
      -9.9706080817641415e-002 -3.3081627384784777e-004
      3.2957340530397213e-004 2.2899088621318623e-002
      -1.4108697378610187e-002 -2.8811403181984944e-002
      2.3720298048767502e-003 4.9025695171958837e-002
      -5.2625572411922096e-003 1.6967483110247303e-002
      4.4052539123729535e-002 3.3253525404327985e-003
      2.5479779480408343e-002 1.5753890352245168e-003
      1.8123523658408882e-002 -1.0892960667177773e-002
      2.2274450761717308e-002 2.2378582325059865e-002
      -5.8938814912599677e-003 3.3493838022986382e-003
      -1.4144257345324710e-002 -1.1158673806053005e-002
      1.2845317372662951e-002 3.9964467403727631e-002
      4.6458667047978082e-002 -8.6010886107410409e-003
      -7.3132911624362324e-003 -3.1221115301521413e-003
      2.3574219604454681e-002 2.4859741660583412e-002
      8.2527739913678729e-003 -4.8790947353859809e-003
      3.1443800027153933e-002 4.5752172978370663e-002
      6.7143131867642578e-002 3.7263575974227602e-003
      -1.1726287259993988e-002 -4.3623538909820556e-002
      -1.4227905374295832e-003 -1.3408408656030222e-002
      -1.5576397822444408e-002 2.3189190118080388e-002
      2.6801677735635170e-002 -8.7219167957339177e-003
      7.7476977746668438e-002 1.6130128073513779e-002
      -3.5140892634183477e-003 2.4203940459541697e-002
      -9.0245662687991932e-002 1.7451457361428287e-002
      -8.2126831218346172e-003 -1.4234167015286394e-002
      1.8420793961687797e-002 4.9579350127588193e-003
      1.1846357637763559e-002 1.7952676192581833e-002
      -2.1877830024253409e-002 4.8359440615828357e-002
      1.6650464599047225e-002 4.4240491733049348e-003
      9.4022614957995874e-003 5.6742058287146742e-002
      4.0298819001209065e-003 2.7457386508004705e-002
      -2.0624926334399662e-003 3.6250875777056697e-003
      1.5265855769975431e-002 3.2756203874143466e-003
      1.8375601908476322e-003 3.5815259566043582e-002
      -2.1200241285314319e-003 -2.8846214019273883e-002
      2.9013378263886325e-002 -7.3521842694628395e-003
      -2.3143210255553073e-002 1.9483035858848349e-002
      -1.3409528691750123e-002 -6.6264899586190848e-002
      7.4417158319439658e-003 -2.8347656104202035e-002
      -9.8095073198861491e-003 6.4589894117394507e-003
      8.8715871785924969e-003 3.1088139420918089e-002
      -7.2662192888634430e-002 1.7296274424630970e-002
      6.1441295924553031e-002 7.7985660774696267e-004
      2.5437837959484889e-002 6.2985382109041546e-002
      -1.3035563298757682e-002 -1.9626924971523584e-002
      4.6092221638487311e-003 -4.1642961800998574e-003
      -1.1383486112043411e-002 -5.5026055431773376e-004
      -8.5710214556268174e-003 2.2021124261595727e-002
      6.1397463007679919e-003 -1.2329919677351383e-002
      -6.0686950959893772e-002 8.2620400887052275e-002
      -3.5877587514709063e-003 6.1521610329342549e-003
      -2.8234696105102472e-002 1.3247647258606619e-003
      4.5616993505320898e-002 -6.3839822048533015e-002
      6.4199099174582636e-003 1.1318273588559824e-002
      -9.5769468913084310e-003 -1.1569273889960418e-003
      1.5521605713502222e-002 5.4615774791667180e-003
      3.6175930457982446e-002 -5.1349539084086973e-002
      3.1827594528410490e-002 -4.6421069166310835e-003
      -1.2624675726536515e-002 -3.0556815058522438e-002
      7.9517464005904748e-003 4.2033121841873404e-002
      -4.0796780033506294e-003 6.1203486993722973e-003
      -4.2347014307853127e-002 2.6669136659818186e-002
      1.6821369006035893e-002 4.3046854504905745e-002
      -5.1192004440799791e-004 -1.0114745940461657e-001
      5.9387310983638919e-002 1.2304525677941606e-002
      6.2635493975280926e-002 -5.0199033800625945e-002
      3.3695485827435971e-002 -2.7104638507385540e-003
      1.3660142560365985e-002 1.7610300965834773e-003
      -3.4658767094664998e-002 2.8726177257602296e-002
      -3.0709277782180990e-002 3.9481996372699116e-003
      -4.8403772999729741e-002 -8.6080340084683613e-002
      5.6133249649492059e-003 -2.7500002832399197e-002
      7.9941907342855386e-003 -2.2017060605509422e-002
      6.6778624798529158e-003 -3.1531881994451165e-002
      5.0245416224032422e-003 -2.3888533498404387e-002
      2.3324303129611798e-002 2.0063032181875211e-002
      -3.8238787604792435e-002 2.0563662715122600e-002
      1.4469848804997104e-002 4.9194280575541226e-002
      -9.8959204121178805e-003 -8.2279015917909055e-003
      -6.5056795444141252e-003 -6.9984539564012091e-003
      6.0801837865283280e-003 1.7372143021413291e-002
      3.8324825516981062e-002 5.2083499480673513e-003
      -2.8887115637155677e-003 -2.9245225534509354e-003
      2.6723828496507730e-003 1.4209444526265198e-002
      4.9710389222154927e-002 9.9865988758810376e-005
      -2.8100947527213666e-002 3.9954949333136779e-002
      -4.4416611798390730e-002 4.8754320079280697e-002
      1.6870587296945787e-002 -8.1792082234114685e-003
      4.5442406494796504e-003 2.6918020868595863e-002
      -1.4306384337040314e-002 -8.2748367348260757e-002
      -1.4911562369863669e-002 -6.9645795685247527e-003
      -1.7339733159647437e-004 -6.1248595459934222e-003
      4.2694483081528845e-002 2.1684964864796288e-002
      -2.0877238123846797e-002 -5.0355065523951047e-002
      1.8286071783821679e-002 2.7733554867866918e-002
      -2.0906013107075392e-003 2.8311446928233421e-002
      3.9632500419770685e-002 5.0578858537690180e-003
      2.4214477255327209e-002 -8.2877312480925253e-003
      -9.4711710284068624e-003 -1.5221561278349349e-002
      5.5361893332322519e-002 4.1378123123073735e-002
      5.8797776893909220e-003 2.4838377618770467e-002
      -3.2064923383770976e-003 8.5235360519377162e-003
      3.7142161817558818e-003 -2.8182662990537795e-002
      -4.0228708252237899e-003 4.5469222604964860e-002
      2.2780433530246374e-002 -2.3630737421947066e-002
      -2.5347311449616581e-002 2.9324376256288552e-002
      -9.3977921711554599e-003 4.1677844719275221e-002
      1.2538675595885788e-002 -6.0380547880446327e-002
      -1.4074383329097198e-002 8.7362136698178206e-003
      -2.3867769787243510e-002 -1.2216690703875229e-002
      3.2921213223416033e-002 -1.5581012731841867e-002
      -9.0290385191965760e-003 -2.0198630053484296e-002
      -3.9679655895746617e-002 1.1030494946347058e-002
      -7.0449291062156883e-003 2.7719863770270602e-002
      1.9566500031894522e-002 2.0116619381304254e-002
      -2.4692999013598751e-002 4.1576134405155292e-002
      3.8753335339115815e-003 -5.4511533923819857e-003
      1.7091497132233034e-002 -1.9535638032464386e-002
      4.5589448459351220e-003 1.2461421677485440e-002
      4.3290391504895935e-002 7.5120540320518639e-002
      1.8857813631622054e-002 3.9019102524543200e-002
      -2.2773434883889162e-002 -1.4858383792300954e-003
      1.0406606662810418e-002 -4.3453937722533802e-002
      1.2605700945437674e-002 4.8276512043924871e-002
      1.7987465653010012e-002 -4.4891456671687029e-002
      1.2719704849741341e-003 2.0343041586518135e-002
      -9.5663868676106115e-003 7.9730710620939341e-003
      8.1831256149106652e-003 -5.1765116181220544e-003
      1.8246221422267121e-002 -2.6473801532365303e-002
      2.5153093008519396e-003 -1.7166658614957295e-002
      -2.3243036578344985e-003 -5.0821977288696953e-002
      -3.5975974117935600e-002 -5.7259929372953430e-003
      -3.6464677204724828e-002 -1.0216666342737896e-002
      -2.2008888511292846e-002 -1.1936005031311573e-002
      2.1182650682967728e-002 1.4731637613638845e-003
      -6.6642891017070105e-002 4.7709516204120797e-002
      6.0329434962165017e-003 -3.2699515430054366e-002
      1.0107490305839569e-002 5.3584255079076925e-003
      2.1257207996366531e-002 -6.6967464241268629e-003
      5.4678964829968132e-002 -4.8548805980349004e-002
      1.0147358182423323e-002 -8.3847689051385586e-003
      -2.0808410447752848e-002 -1.0487785555697111e-002
      -6.6428248447870566e-003 1.7762588023994049e-002
      1.9318422937618384e-002 -1.3923091738759762e-002
      -3.3555350589351475e-002 -2.1404428978965967e-002
      -6.4624188581462488e-002 1.3125690062399772e-002
      -7.4835556910860065e-002 1.5536732248946502e-002
      1.4157736742843680e-002 -5.4377102252908774e-002
      -1.6619951863279275e-002 -2.1625479774476916e-002
      3.3640276013672546e-002 -1.8490405280416244e-002
      -1.8969640508875226e-002 -3.7769208684615835e-002
      -3.6312218703866458e-002 -2.2379005478587836e-002
      4.8064987789074830e-003 2.3521024895627109e-002
      -3.2709859664798255e-003 -3.7022205773766534e-003
      6.0097338923029223e-003 -4.5352050123445453e-002
      -8.0098863856961286e-003 1.3844207789238817e-002
      6.8460970340080253e-003 -1.3743504982135200e-002
      1.1486976769572266e-002 -9.7522445163823780e-003
      6.0635438819660291e-003 -3.4490061905689387e-002
      -1.4653742866683633e-003 4.2782972989368210e-003
      -2.4700006109071318e-002 6.9051162733877016e-003
      -4.7530979558344920e-002 -1.7825822464950240e-002
      -1.0698950253803201e-002 -8.2003970368614738e-003
      -2.9203549988865911e-003 -1.0973138832876931e-002
      -4.0697160548504802e-003 -2.7795842234802592e-002
      1.8428537282746845e-002 -8.8383679541071661e-004
      -1.6207453585440970e-002 -1.0505068340291201e-002
      3.1038524847020538e-002 -5.7122307492073476e-003
      -9.1200923712625285e-004 1.3402896235967630e-002
      8.0623801974676040e-003 -4.3227222233671724e-002
      2.7550400528214412e-002 4.7423374512919614e-002
      -3.4735322141951241e-002 1.1374569336212413e-002
      3.9240566099475377e-002 8.5365861504890592e-003
      7.7388539951024227e-003 -1.9440746510444421e-002
      3.7678580471755098e-003 -3.1188659388364064e-002
      -1.7066264962868692e-002 3.8398955828732081e-002
      2.3605581424713029e-002 3.2424416273969421e-002
      5.1570055392208922e-002 8.9306280510101796e-002
      2.8783038673100517e-002 2.3448623762761475e-003
      -7.1979087550767453e-003 2.6860386377044479e-002
      -1.2947018798539968e-002 -6.0886376710296973e-002
      -2.1355948631666375e-002 6.8975983560135654e-003
      -2.2344540826288877e-002 -1.7373949206018948e-002
      -1.4025010094560352e-002 7.1891024821170962e-002
      -4.7285016215254667e-002 -2.7081804644405935e-004
      -1.0335248123316661e-002 -1.6000193354619916e-002
      6.2590465315420542e-003 -1.8736201277066312e-003
      -1.1791337888201190e-002 6.4176365508385068e-003
      7.0932146465995790e-003 3.5270166242829443e-002
      8.2588079437590250e-002 3.6813632938753428e-002
      5.6061584950653628e-003 6.4444579065637525e-002
      -1.4273486441391668e-002 -2.5058735397629414e-003
      3.7064822456941815e-002 -7.1679360064853110e-004
      1.6442241736098026e-002 4.8527068268756204e-002
      -1.9574859258010089e-002 -2.0977335804961354e-002
      8.0417745910522729e-003 -3.8911595793659950e-002
      -1.2013860941679864e-002 -3.6504437883007258e-002
      -4.2825108619829076e-003 1.1988787694816332e-002
      -2.8918241637728305e-002 -3.5140859047850956e-002
      8.7374357982908137e-003 -2.2473717367085908e-002
      3.1677702652701936e-002 2.3345465687731122e-003
      -1.3792278811416234e-003 -7.5450882051461216e-003
      2.9770798496342676e-002 7.7242857690302518e-003
      6.4141435354468021e-002 9.0887396724987444e-003
      -1.0777648247151327e-003 -5.6245388209803064e-002
      1.1062276680379689e-002 -1.4114424261846437e-002
      -5.9092762408915527e-002 1.0402905817638211e-003
      -9.5373676701281281e-003 9.7822153403617940e-002
      -1.0582465566130703e-001 -8.6701805303059265e-002
      9.9418184999248930e-003 -1.4655915596319031e-003
      -6.2608636370246416e-003 -4.0329013810623537e-002
      2.4951155762875151e-002 1.1976801885174228e-002
      1.3961209078285106e-002 5.5079808169041268e-003
      -5.6590987909770671e-002 -9.6380501264558341e-002
      -4.2359199205716201e-002 -1.3739164987831124e-002
      6.4962507302732102e-003 4.8463632535111359e-003
      2.0651199043818399e-002 -1.4125361676570301e-002
      -1.8978927858545675e-002 7.6505743518338861e-003
      -3.0255818036719697e-002 -6.7646331284203498e-002
      3.5647956645475411e-002 -5.2719589426566925e-003
      -2.9089819771399407e-003 -5.0260962047890156e-002
      4.2817602438815903e-002 -5.5490385139791727e-003
      1.3682674148539112e-002 -2.0101258026147168e-002
      -3.2119701044614271e-002 -1.3732504411429432e-002
      2.4795871671161537e-002 -2.6302673594553721e-003
      2.1356655242460314e-002 6.7504875190321448e-003
      -1.9782610467894146e-002 9.3225011403392372e-003
      1.3527141246912613e-002 4.4078139132337726e-002
      -1.5223562888689089e-002 -1.9668898761033213e-002
      -2.6941258498321104e-003 7.5956491331691574e-003
      -5.9647820129408807e-002 -1.3735931123280587e-002
      5.6687565946772808e-002 -5.9271096431964931e-002
      -2.7949721266729353e-003 1.1943415176125986e-002
      4.8154679820546130e-002 6.6598405639740732e-002
      -2.2208336795698096e-002 -9.5196540489045113e-003
      -3.8806079705815573e-003 1.8817910098004816e-002
      1.5964998840400799e-002 -2.5571096425997017e-002
      -3.3438492856885799e-002 -1.5150205417649835e-002
      -3.1979031381274683e-002 3.4369163549809009e-003
      -1.0359980385330618e-001 4.7967288718961214e-003
      2.9012783062397157e-002 3.0175296909333339e-002
      7.0622658021585009e-003 -2.2161591393797028e-002
      -2.4870348507815349e-002 1.9415350816622465e-002
      -3.9591136822776790e-002 -5.3479725443350994e-002
      -5.6661256636783225e-003 2.2545720810875801e-003
      -3.3241512946383910e-002 -1.2411295397775080e-002
      4.8683888461346678e-002 -4.9545842974785648e-002
      -2.1584378759986412e-002 1.4682842513081459e-002
      -6.5950399000970814e-002 4.2502107685674716e-002
      8.4142540745041086e-002 4.1132730577112940e-002
      -1.7438565842352507e-002 -3.6859582602340575e-002
      9.5843788708635386e-003 1.2668269963949961e-002
      1.6306837762416360e-002 2.5439466616725772e-002
      -2.3741316027126411e-002 8.2455776812472056e-002
      2.4943549755492727e-003 -1.0177221184525994e-002
      -5.4794903846295045e-003 2.1838906437340364e-002
      3.4734626123992885e-003 1.3020658081657939e-003
      -1.9675276621405415e-002 -1.2620176830550446e-002
      -6.6846939851745238e-003 -2.9071944821473499e-002
      7.6613287605040853e-003 -1.0301792527268901e-002
      -3.2811593072993236e-003 3.2081419227645354e-002
      1.6697226119320785e-002 -3.0604101399680818e-003
      -1.5373200525177363e-003 -2.7353483924715503e-002
      -2.7788652119926264e-002 5.6020381759538412e-002
      -3.0632482964417158e-004 -2.7981893221590285e-002
      -1.7224065101031395e-002 1.8510227858402093e-002
      5.7511221955929823e-002 -2.6656518069360723e-002
      -4.7322765501865878e-002 3.2720111319018363e-002
      -6.6957786028900438e-003 -7.3504770879463555e-002
      -2.9758182776254843e-002 -2.3487045654345444e-002
      1.5925553920784832e-002 -1.5459957960713587e-002
      1.5541708587983358e-002 -8.9401466958695282e-003
      -1.3273900359347173e-002 -6.7952907509287799e-002
      -3.6045865913413376e-002 2.7378125935301921e-003
      4.2548389302363113e-002 1.3400287695260894e-003
      6.4350100716906569e-002 -1.5094743893757060e-002
      -1.6795091187411088e-002 6.5561170896969324e-003
      -4.4267864511815240e-002 -3.2035606535562214e-002
      -3.0412414139941481e-002 5.6333195727027517e-002
      -6.6883682318075507e-003 2.6706522462752551e-002
      -2.0530425241289774e-002 4.3239758884202712e-003
      1.0592807613237284e-003 -2.8863228637855492e-002
      6.7323114026194467e-002 -1.8615600897568942e-002
      -1.3180481803975576e-002 2.2860795350202565e-002
      5.3340148353862079e-003 4.8188718040777880e-002
      3.9787866724569684e-003 -2.3511993439265647e-002
      -4.4264103561177850e-003 -3.8447215054842630e-002
      1.6721370666600868e-002 -1.7640745969611858e-004
      3.9408524868403898e-002 -1.1411551424995284e-002
      -1.6000916828780756e-002 1.6332950383335345e-002
      1.7752849155477299e-002 -2.3558669924164412e-002
      5.9583324967698033e-002 -5.3447668343513652e-002
      -2.4702622463463580e-002 5.6203435213009162e-002
      -1.5331304440487218e-002 -6.8854102520297363e-003
      -1.3823175039904311e-002 1.2920770437352666e-002
      -2.4617573181895957e-002 3.8832430188954034e-002
      6.0696936953817830e-002 1.0431131765746733e-002
      -2.7591305626839951e-002 3.1400720843682869e-003
      2.6317966870275547e-003 3.5102152882253118e-003
      -1.2726540588475440e-002 -1.3772999999705085e-002
      6.1572043766803794e-002 -1.0766058324119390e-002
      4.1201929528972572e-002 -1.7094987748561413e-002
      4.2306715176091442e-002 8.7269675529933893e-003
      5.7077996781622290e-003 -5.9219713365930276e-003
      6.2593692540265519e-002 1.1309733762228042e-003
      -7.0361439575520827e-003 3.0801320833486339e-002
      2.7587752003593972e-002 -6.6536255091764002e-002
      1.2013654282948651e-002 2.0669799304421820e-002
      -3.4229856130443357e-003 1.4093413446108415e-002
      -3.9344406674744203e-002 -2.0379579595277236e-002
      6.4740744709671340e-003 -2.9251690084902152e-002
      2.3277832428891813e-002 2.1793105976141418e-002
      4.6028526522122427e-003 6.6051334309187391e-003
      2.9491528888362994e-004 1.3070409818604323e-002
      3.7367146271829985e-005 1.6577284176218784e-002
      6.9551728373869789e-002 1.9040584769975045e-002
      2.8834295809203086e-002 2.2931461195763634e-003
      -4.3278368546766012e-002 -2.5111489391499736e-002
      5.8329115257248737e-002 -2.3002536198362088e-003
      -8.5537991472533423e-002 1.0447042743557517e-003
      5.1358206362793681e-002 -4.2802738002969257e-002
      -2.5108898663651933e-002 2.4640928128428614e-003
      -2.5910831540722025e-002 1.3928933473000294e-002
      3.5195894257481625e-002 -5.6940803160501020e-002
      -5.2500994186392988e-003 -3.8605863520634769e-002
      3.0372056482830583e-002 -1.9996655617859627e-002
      3.8192740314419230e-002 1.8143589575419266e-002
      1.3818637888454912e-002 2.3241368340931292e-002
      -1.8123404523876247e-002 -9.7825171111235007e-004
      -1.7738630019187886e-002 7.4945257682033284e-003
      5.6841676695806302e-002 -7.6174329538959848e-002
      1.7462741525543862e-002 -1.3081862633180202e-002
      1.5026657056945650e-002 1.8926912454619434e-004
      -4.4174442709971201e-003 7.6248986756243409e-003
      -1.8161632072999850e-002 -6.6262309268584445e-003
      1.0181492341129143e-002 4.3785233600858099e-002
      2.9038694719985894e-002 5.9682234901704177e-002
      -8.1844797996166643e-003 -5.4817301343379567e-002
      -7.3394929105042948e-003 -8.9651996256715667e-003
      -4.2787755160314175e-002 3.1265784728149788e-002
      6.0666248354108998e-003 -4.4490925467935101e-002
      -4.0749792002314307e-003 2.6862808703066927e-003
      3.1915513544361090e-002 3.5375935448110539e-002
      -8.6224092448615348e-003 8.5673813349727707e-003
      -2.8886850983599220e-003 1.3719363523206037e-003
      -3.5727686704008534e-002 -2.7629996335743031e-002
      4.4133189844162125e-002 6.6060139852223343e-003
      -8.9481001872309725e-003 -1.1133737203663174e-001
      8.7757982230238524e-003 -2.7751456541534544e-002
      -7.8377041456904939e-002 1.5318571443355246e-002
      3.7778814720561472e-002 5.1101294269381330e-003
      -7.9858802121701173e-003 1.2758650629074839e-003
      -1.4156378695237847e-002 -8.1913278871497599e-003
      -1.6545197337172343e-002 7.8672359320779549e-003
      -5.4048685164925947e-002 -3.1806377576835132e-002
      -1.4945208253419322e-002 3.1566611305136080e-003
      -1.9280403475483859e-002 6.5426428624599450e-002
      -5.0861801378355260e-003 9.8201868983726875e-002
      1.2009681361589723e-002 -6.5423734924529658e-002
      5.3670650436101258e-003 -1.6904438976670419e-002
      8.2337193439402327e-003 -7.6182214402672538e-003
      -9.6104695315248848e-003 -1.1649318434628700e-002
      -2.4494841412154078e-002 -2.4315382025961712e-002
      1.0810508777898846e-002 3.8914126284463620e-002
      -2.2465261842281026e-002 -3.3000033387572403e-002
      5.6372625197921862e-002 -2.9129438334260679e-002
      -1.5022475277932844e-002 -1.2772572055756829e-002
      -1.4387363017194319e-002 1.8290011061288823e-002
      -2.7167394586844955e-003 -4.0944607570139679e-002
      1.9862470599201496e-003 -4.2370491598514234e-002
      2.7303872232229194e-002 -8.1855360766199068e-003
      -2.4894580202040127e-002 1.2786872322432035e-002
      -1.1353301704566160e-002 -1.9827221287664946e-003
      1.5534140633582482e-002 -1.4346713734795622e-002
      7.1130727819072787e-002 -7.9943379417816395e-003
      5.0969420341021735e-003 1.4518839188068150e-002
      -6.6925037987610000e-002 -4.6228490521445643e-004
      -1.6354510163968938e-002 1.5373507418479910e-002
      1.8837535145041766e-002 -4.0888463566151117e-003
      1.0593161533589466e-002 -1.1519299591727636e-002
      1.8865613358676120e-002 -1.4107126954318799e-002
      5.4214309319449176e-003 -4.2867740648101253e-003
      -3.5169139009880383e-002 -2.3602627480403007e-002
      -3.8200895333769793e-003 1.3241455013377354e-002
      2.3139888278517214e-002 3.8659292001946330e-002
      1.2249972076678897e-002 5.6196943610385262e-002
      -1.5594206299130994e-002 8.3996495439459824e-003
      -7.1792672645755617e-002 1.7595257741988914e-002
      -9.2912835560376092e-003 -2.3145385203202275e-002
      5.2748019283657369e-002 -4.4792415361223897e-003
      -3.8525270052270238e-003 2.0737320045644787e-002
      -4.1585316993643366e-002 9.2175877929245018e-002
      -1.1592332972819122e-003 4.6443487232845686e-002
      -1.1547239687320831e-002 -1.2604814915168591e-002
      6.2127467838789911e-003 -8.1638670848306633e-003
      2.8584703700797694e-002 2.1093674686085150e-002
      -5.6654782865573645e-003 3.8224732305358174e-002
      -3.5695790362327978e-002 1.2197345422458365e-002
      -4.2427712691194873e-003 7.7314040649259655e-003
      3.7522750340975977e-002 4.2747214607860046e-002
      5.0129555759321848e-002 6.1555186285102243e-003
      7.7754341913613108e-003 -8.2310774583108223e-004
      1.8729403564267035e-002 4.2056248103542037e-003
      -7.7877528042754913e-004 -6.8458045152048411e-003
      -1.3615794510489885e-002 -1.4897546966194911e-003
      1.1196647661352553e-001 -3.0046283467506808e-002
      1.7799888639214556e-002 1.6291590340590922e-003
      -3.2221277042014967e-002 -2.1422655459831096e-002
      -4.3941053873717143e-003 -4.5780999670791002e-002
      1.1647965336036278e-002 6.0480791149125157e-003
      7.4194316005431526e-002 2.2853046911201880e-002
      4.2403920529990200e-003 2.1141298476161596e-002
      -1.5095256302308624e-002 1.7201314206427835e-002
      -7.1092235907425656e-003 4.5637826549784564e-002
      3.6555615355729917e-002 -4.6003207825301012e-002
      -5.1616257007789683e-003 -6.8494284337395198e-002
      3.5516303853306001e-002 -6.0206855993380631e-002
      1.0099525521019672e-002 2.2740606754078192e-002
      3.1812087270214470e-003 -1.0736901134750695e-002
      1.0466081824436200e-003 2.8216933248932714e-002
      3.3527306980804797e-003 3.6961462631866552e-003
      4.5619057766038001e-002 2.1656935797133559e-002
      -1.5298519539410445e-002 -3.3251427993325408e-002
      -1.4718858282786809e-002 2.6788402762111318e-002
      6.1074255134792527e-003 -1.0243709101550808e-002
      3.9393464402637289e-003 1.5597846598676921e-002
      -1.0320789311616023e-002 -2.7959551610641512e-002
      3.0580512062909258e-002 1.5296322020104378e-002
      2.8846834976213202e-002 2.2668148882150792e-002
      1.5904800420173743e-002 7.3071373085601939e-003
      9.6916790129323582e-003 3.2298426684457766e-002
      -1.5596137376033983e-002 -2.2376879788262111e-002
      -1.5651756686679695e-003 -1.7939936401185585e-002
      -1.8147749271086706e-002 -1.7296873570864504e-003
      -5.6345303840596585e-002 3.6164833201996587e-002
      -5.7657965473437281e-002 1.2461432604284431e-002
      1.2729056849078423e-002 1.1380492485283663e-002
      -8.1698590184438539e-003 4.4124899067394037e-002
      -2.6531505854907461e-002 2.8940735798235694e-003
      5.9842308935343105e-002 7.5452305835577577e-002
      -3.2724383211092223e-002 4.8351049514495285e-004
      6.4361478504441891e-002 4.2427678370683057e-002
      -3.3076776450601794e-002 2.3567027688389659e-002
      1.5123983543716508e-002 4.7129485533179617e-002
      -4.5738107710292537e-003 -1.2372670944230026e-002
      1.1938242594365005e-002 -8.0135356951610542e-003
      4.9712992136841869e-003 2.4400055812200724e-002
      4.1332396230765196e-003 -1.2922520404217409e-002
      -1.5745898787887170e-002 1.7652483903965781e-002
      -8.5004167289961779e-003 7.8540041123971085e-003
      8.3924589613025083e-003 4.7822146728908395e-002
      -2.6152208266947887e-002 3.8740638847449438e-002
      5.7480857055916143e-002 -3.5655267118421027e-002
      -4.0236058252290458e-002 -4.2301940956019829e-002
      -6.1097124748037707e-003 -4.7327599230278662e-002
      3.4543593731743018e-002 -3.3632108223757548e-002
      -1.1743194256038291e-002 -1.3396188153420902e-003
      -9.3071559609394436e-003 2.2188865841292652e-002
      -4.9643756764821594e-003 7.3193657012754362e-002
      7.5496938314331312e-003 8.5525396691067696e-003
      -9.6330714318892310e-003 -6.1403441768696004e-003
      5.6707075107770462e-003 -9.8863500723751188e-004
      3.2617013728064942e-002 3.3750633811735417e-003
      2.3514950941639967e-002 3.7730357203347581e-002
      8.4597737748747411e-003 -2.1477719888434953e-002
      -3.5610359182734405e-002 2.5038183059988232e-002
      -1.6430737913957787e-003 1.8919421159609450e-003
      1.7503231034875992e-003 1.7859314184411269e-002
      -2.6765224311567277e-003 2.8692915727536656e-003
      2.3213556206779524e-002 -3.4008729959670771e-003
      -2.0366858030047689e-003 4.8870837136007456e-002
      -1.5324851372415279e-003 -1.0416670223711278e-002
      1.2235562363325651e-002 -6.6873996208928798e-003
      -2.5396001479234212e-004 -1.2463498606152056e-002
      9.9810628157559434e-004 -3.2111485920216294e-002
      -4.5756955328524395e-003 2.9555651462298653e-003
      3.9464792965930307e-002 -4.1635394843360304e-002
      -6.5493959210534700e-003 -3.7620038534729046e-003
      -7.6168275349722814e-002 3.1673492212923343e-002
      1.3421834847445193e-002 1.8597220597608731e-002
      -1.0693995634131426e-002 8.1868477038940762e-002
      5.7257692086425900e-002 -8.5413144247152139e-003
      6.0377464501754703e-004 -5.3269464540099780e-002
      2.3214659133369436e-002 -8.6649986439668591e-003
      -4.1030481272578745e-002 1.0206969887730576e-002
      -1.0368263490955600e-002 -1.8696812152867531e-002
      2.7814128998889846e-002 -5.0781629715319623e-003
      6.7970482497867104e-003 -7.6509410809382436e-003
      -5.3874160191617379e-002 -1.3405773125277205e-002
      -1.0156275764045118e-002 1.6285433474607907e-003
      -3.4119167944494993e-003 -6.7280261707247324e-002
      -1.6682888150532815e-002 -2.3453019593810628e-002
      -5.1021259623746408e-003 -1.8714661795325598e-002
      4.6435128832815632e-003 -3.7536764447357485e-002
      -1.9621281790327030e-002 -2.8304435413515489e-002
      4.6999950112132701e-003 4.1115064583183841e-002
      4.1510194428414651e-002 4.1381222695748225e-002
      2.5137855396525646e-002 8.0944087379096197e-003
      1.5032540872666174e-003 -2.2994487188060162e-002
      -1.6957332310829791e-002 2.7622971155835174e-002
      2.2884426826365198e-002 -7.1889391449008197e-003
      -1.5797420570263416e-002 -8.5455949725374031e-003
      -8.5206282836622176e-003 -1.6767209893825182e-002
      -5.2481007527752963e-002 -2.4529815965835401e-002
      1.4485434080744231e-002 3.4105574145358947e-002
      -1.1382939055398087e-002 -5.4638405131930733e-003
      1.8120810979865461e-002 -3.3343113120128040e-002
      6.4609104831367687e-003 -9.6912002702371908e-003
      7.0828798138467836e-003 -1.0167849953078636e-002
      -5.5020305232417015e-002 1.7062600051970408e-002
      -6.5546318442490136e-003 1.9840690808750738e-002
      -1.3378494117365828e-002 -1.0198900914883062e-002
      -3.1262713055123506e-003 -1.4365939256803652e-002
      -7.3842830633172795e-003 -5.7587590343790705e-002
      6.5924394112898974e-003 -1.6417941190174628e-002
      -3.4245708340194553e-002 1.7178540927396430e-002
      -6.9507463412857656e-002 3.5639007996674625e-002
      3.4724255663414923e-003 2.1471403013109739e-002
      1.4892339543287142e-002 2.3808726861466924e-003
      7.8608119635754266e-003 -3.4451055059992096e-002
      1.6654382208701357e-002 -4.2850854688131781e-002
      -8.8607175977647376e-003 -4.4588593422044971e-002
      -2.6931250213716559e-002 -2.6910195102724317e-003
      2.2361349150927304e-002 8.4782209071410288e-003
      7.5310443747756009e-003 2.3845620822100594e-002
      -2.1446298652547789e-002 1.1805879798609538e-002
      -1.4571318076637954e-002 -6.6951883594018576e-003
      -6.6172333790859485e-003 -7.3252646395669083e-004
      1.0282474740184616e-001 5.2720913779345782e-003
      2.5813182399907495e-003 -8.1627839958061929e-002
      8.6763503647731000e-003 -1.1857564113652734e-001
      -7.0774986937932313e-002 -1.5632553444843433e-002
      -3.2771479530359390e-003 4.9651950512949773e-002
      1.3703659876498424e-002 7.8162301682555228e-003
      3.2262222099349369e-002 -6.1775893187114078e-003
      9.7692344606041450e-003 8.5036571925106899e-002
      4.9416019918741609e-002 -1.6311213275811975e-002
      -4.4553842633505755e-003 1.3841268440100545e-002
      4.6484994771912175e-002 -4.6596402554280898e-003
      -6.1830769801362588e-002 -3.0800856096681825e-003
      2.0632767100403578e-002 5.8145738170046389e-002
      4.6086903087617821e-002 -5.0740080218945370e-003
      -4.9324336000518477e-002 -1.1430691164395778e-002
      2.8213833803622204e-002 4.0687487288685147e-002
      -6.5696240670099285e-002 -2.0215981822114693e-002
      -9.2953202017747004e-003 -1.6627161950211009e-002
      1.7075052052951963e-002 1.0208448967987328e-003
      -1.3968710193260616e-002 -4.2444614709123508e-002
      -1.1734739233389843e-002 6.9281212368528409e-003
      6.6837476432473827e-002 7.2729116274243017e-003
      3.4962993378415477e-002 2.2042548673842637e-002
      -2.6889019635747073e-002 -9.7283518031205714e-003
      6.6278924933161690e-002 4.1560841697783429e-002
      -5.3522915784605680e-003 -3.5536121454235861e-002
      1.6337659301111800e-002 -1.0421351485975902e-002
      -3.9570924457126809e-002 5.3275918201776485e-003
      -1.9727211412725754e-002 -2.8180041307036323e-002
      6.5046419078850268e-002 -5.5545912480279597e-002
      6.3693293361074266e-003 1.8332272827476636e-002
      4.7672707181803241e-002 8.3290985203279579e-003
      5.8234971400375340e-003 3.2278643450033948e-003
      4.2739001027278511e-002 4.3528999341903830e-002
      1.8610036015466545e-002 4.0146647343031619e-003
      -9.1871641451628846e-003 8.2874197523347178e-003
      -2.1821848278507548e-002 -1.1847541308848139e-002
      -6.9280789755621040e-003 -1.4612366775602733e-002
      4.0422644904034730e-002 1.9311245783125493e-002
      -2.6010655971001360e-002 1.4792859370658875e-002
      6.7023423916477684e-002 -8.1439262784623468e-004
      -5.4506207075118530e-002 -8.5893625154555373e-004
      7.8588006557883949e-003 -2.8539560643951419e-002
      1.1332357242301775e-002 2.1840184257409408e-002
      -1.0896943206663618e-002 6.4614907286261259e-003
      -9.3586406577413420e-003 -7.7100999966323441e-003
      4.2699031918604176e-003 1.9729500937935067e-002
      1.1719900907383230e-003 1.4553057475550118e-002
      -3.3456197043714622e-002 1.6222537337589934e-002
      4.4321287474177540e-003 1.4840700850053282e-003
      8.9821696316417232e-003 1.6678857905543659e-002
      8.5353556959654690e-003 2.8827036882255623e-002
      -9.5176572206731244e-003 2.3487117218880414e-003
      -1.1639782878359780e-002 -2.4876535556269471e-003
      -1.5749717225893637e-002 1.4897668039392742e-002
      1.8501695495588804e-003 -3.9748305665319797e-002
      -7.2894957072731402e-003 7.7648395274084814e-003
      -1.2713852508178981e-002 4.7628543216503810e-002
      1.9286754446339201e-002 9.5056588121992733e-003
      1.4708440559829190e-002 4.4278215001785064e-003
      -3.3565287772403592e-002 4.2186100269408326e-002
      8.6378665560189763e-002 1.9023376275344877e-002
      6.3223829109343814e-003 -7.9961012558653413e-003
      8.1797367165589198e-003 9.4407371660208891e-003
      1.0188891168342370e-002 -1.3806495606988774e-002
      9.8267743810251454e-002 3.5658924933783996e-002
      1.6455782738313371e-002 2.7211198231189161e-002
      2.1496280319207708e-002 6.6115422051293379e-002
      1.9301497410882482e-002 1.9501967616222089e-002
      -1.2502916933908734e-002 -1.6412885279463462e-003
      1.5450408163250228e-002 -5.0881657689626852e-002
      -6.9661825863752372e-002 1.8132443797572131e-002
      -7.4783894700468012e-003 -2.7577255583562714e-002
      -2.1882608413915185e-002 3.4526273127527033e-003
      -1.2270910742544014e-002 -2.8316185738318385e-003
      2.7397230084270571e-002 8.9098456899183043e-003
      2.6717958352175591e-002 4.2437458969588282e-002
      6.7139228017916178e-002 2.4220392791376635e-002
      -1.4013459689508855e-002 5.7493148019671717e-002
      -1.5864716881610019e-002 -2.1994058225976647e-002
      -1.7959672996575016e-002 -4.2139703546710400e-002
      9.1188302860814238e-003 -1.2041385991182613e-002
      4.3976981422529969e-003 1.8451518640303081e-002
      1.8914296095671589e-002 2.1228718388147723e-002
      7.0755851072992401e-004 3.0758428920302040e-002
      -1.5968582086238955e-002 1.3671971377557292e-002
      -3.7183923024229938e-002 2.8419695314511675e-002
      -2.3315229526928829e-003 -1.6086351224297541e-002
      4.0947306551019295e-002 9.6244003900306536e-003
      -1.7946695184135837e-002 -2.2097761200688720e-002
      -2.2574993007435122e-003 -1.9105191542224790e-002
      -1.9146215949362586e-002 1.8908434943639561e-002
      -2.2915261175286351e-002 -8.1958187327080267e-003
      -7.7667739990187725e-003 1.7796106558167677e-003
      3.8973957237766053e-002 -2.5036758059221085e-004
      1.1876073681796124e-002 -1.3848336555636902e-002
      6.3799392390166826e-003 -1.4358830646455448e-002
      -1.1593562695515558e-002 2.7428735430686513e-002
      5.4737188264212935e-002 -1.1887577036589964e-003
      -2.3467591711704089e-003 1.2661350134192592e-003
      -1.0162539348419373e-002 1.1839771694343248e-002
      1.4853898472973585e-003 -6.8596643640401411e-002
      3.9067885519316829e-002 -9.8221906837132455e-003
      -1.5641273154669406e-003 2.7939901116193256e-002
      1.0393596671754105e-003 2.2054831014066932e-003
      1.2510680937261560e-002 2.7309780604557916e-002
      -3.1175053755447754e-003 1.8517210650756448e-002
      -7.5986324294568487e-003 1.1628077617354649e-002
      1.5608089757669426e-002 2.7021522498607689e-002
      5.2787347881672563e-004 -3.5429800025781675e-003
      -8.6719105986498256e-003 -3.0162233365157290e-002
      -1.3527158921723268e-002 -1.3724970099317304e-002
      -9.9339901112452424e-003 -2.2133440850147096e-003
      -5.7414616078860685e-003 2.5155750317126292e-002
      5.2136270324801585e-003 4.4049337080428880e-003
      -1.1936552906452121e-002 -5.3607644914621796e-003
      -3.3278404647352827e-003 -1.7834168219449317e-002
      -3.0482751356764405e-002 -1.9660838377801026e-002
      -5.8894554679906645e-003 3.5566260032318889e-003
      3.8439738132831867e-004 6.3559314657522625e-002
      1.9030942241192138e-002 5.2445358351407963e-002
      5.3237340605450038e-002 1.9745333588779904e-003
      3.6202240063386883e-002 4.1385334237968689e-002
      1.7587107910322676e-002 3.1802931253823746e-002
      -5.8820634608685298e-003 1.3565205455928053e-002
      3.1525617658180877e-002 -2.0058998292227757e-002
      8.7341604986186702e-003 8.2826115011393441e-003
      -6.0769120413030229e-003 -1.4435576839446676e-002
      3.1950019884363912e-002 -4.5807960350581378e-002
      1.3027379920731667e-002 6.1045176399882731e-002
      -2.0817668020296779e-002 -5.1614499907408811e-003
      1.3613136120536507e-002 7.5394909428047304e-003
      2.4794125813933955e-003 1.0907268027594610e-002
      1.7667670598948068e-002 -3.2415287664594186e-002
      -3.4967087620562887e-002 -5.8173685739804862e-003
      -4.0917850298917684e-003 1.3391264489656874e-002
      3.1755647301588079e-002 2.3399639292418908e-002
      1.2469173197708778e-002 1.9084678548721874e-002
      7.1609486282444195e-003 -4.7494619517265635e-002
      3.1830773416980242e-002 -1.9403406999172861e-002
      -1.2894644541525512e-003 -4.2592252449611775e-002
      2.1482440475998964e-003 -2.8101601390772661e-002
      4.5734565543954650e-004 -1.6527061302186428e-002
      -8.5084655838874364e-003 -1.7739279741729841e-002
      -9.6108049107847260e-003 -4.5748498116176102e-002
      1.2747587449228296e-002 6.1864342358747562e-002
      2.2988820433479572e-002 -2.0859604502036200e-004
      -1.4526682278030327e-002 7.0322521604306298e-002
      2.1384591274806596e-002 -9.1455082162493779e-003
      5.4828899359996245e-003 5.0080566763597956e-002
      1.4481717528577794e-002 7.5782683985435185e-003
      1.7137623579087419e-003 -2.7275405174492207e-003
      5.2491921664325350e-003 -7.2500615443458821e-003
      4.2637418295029428e-002 -8.2263975270600045e-002
      -8.6717055983811936e-003 -7.1844432612219483e-002
      2.5095329353579169e-002 5.0352507916918386e-003
      -3.7012098848733702e-002 -4.5401762371179970e-003
      5.7598519351439149e-002 3.4165099338449093e-002
      -1.6723360039955039e-002 -2.2644270376334846e-002
      -2.9096857213663221e-003 -2.5651977782560755e-002
      5.7996146712591609e-003 4.4871313166606488e-002
      5.2713899554992463e-002 -1.4118737254382636e-003
      3.8187416694154028e-002 7.2099511647911079e-003
      7.7553733980059002e-003 -2.6695922552468616e-002
      1.8369359396405983e-002 -6.3883975092403941e-002
      1.3342889101713334e-002 7.1538971337022049e-003
      -1.1084173619456442e-002 3.1681972644759353e-002
      2.0978811791752899e-002 1.8570158758492813e-002
      -1.4159637524389142e-003 1.0194566526799726e-002
      -5.2181080759872191e-003 5.6040368781699202e-003
      6.6747192765386362e-002 2.2996078349006737e-003
      2.5036395640313843e-003 -5.1590017901414001e-003
      -2.6381008672684727e-003 1.9396117320970296e-002
      -3.5700455135828160e-002 2.1034423726024123e-002
      -6.8160519327338650e-003 2.5735976765415107e-002
      -8.0474962667813794e-003 1.1342403102016601e-002
      -6.1255349192273741e-003 3.9468212836841356e-002
      1.5519557777504488e-002 3.3211927617352341e-003
